13088 25
</s> 0.013608 0.019901 0.000976 -0.006039 -0.007712 -0.006437 -0.010579 0.016775 -0.016509 -0.008456 0.010542 -0.011823 0.003059 0.019782 -0.017717 0.006954 -0.002884 0.004407 0.010289 -0.002085 0.016186 0.000922 0.007586 0.013492 0.009524 
1:5078 -0.004225 0.008429 0.018809 0.013644 0.000854 -0.003659 -0.015209 0.005496 -0.007256 -0.018732 0.009274 0.009061 0.013416 -0.019148 -0.004472 -0.003038 -0.013610 -0.016829 -0.014970 -0.004213 -0.000680 -0.000765 -0.001745 -0.006246 -0.005971 
0:360 0.011324 -0.018470 0.005731 0.001482 -0.001748 -0.005020 -0.018624 0.000251 0.016052 -0.016198 -0.008676 -0.014479 0.019380 0.004697 0.004225 0.002425 -0.018247 0.013456 0.018367 0.005498 0.003190 0.003895 0.018886 0.007433 -0.004428 
2:9911 0.011938 -0.009304 0.003881 0.019081 -0.011188 0.017016 -0.004820 -0.006165 0.006226 -0.005203 0.005184 0.018099 -0.002318 0.006823 0.001529 -0.019442 0.004594 -0.001323 0.011873 -0.002205 -0.018748 0.011542 0.000954 0.005346 -0.005389 
2:10904 0.016466 0.003467 0.010523 -0.004265 0.017763 -0.001654 -0.012357 -0.009904 -0.017901 0.018147 0.011475 -0.009713 0.004738 -0.007129 -0.002731 -0.005346 -0.000282 0.017634 -0.015524 -0.016897 -0.003261 -0.014161 0.007293 -0.007826 0.007755 
1:5091 -0.012098 0.002431 0.000645 0.011426 0.012869 -0.015099 -0.014297 0.001755 0.001786 0.015584 0.000463 0.003493 -0.017269 -0.007134 0.001690 -0.017187 -0.002077 -0.007744 0.001436 0.007408 -0.002514 0.012256 -0.018989 -0.009792 0.018495 
1:4303 -0.006591 0.003533 -0.013046 -0.010875 -0.012581 -0.019798 -0.018696 -0.000629 -0.010593 -0.017515 0.017532 0.002183 -0.011883 -0.016538 0.017689 -0.009363 -0.003861 -0.011568 -0.012134 -0.013872 0.001806 0.010080 0.011731 -0.001939 -0.003221 
0:1758 0.010729 0.005519 -0.003561 -0.013478 0.018314 0.001072 -0.015823 0.000622 0.004823 -0.019123 -0.014147 -0.018970 0.006231 -0.000448 -0.002673 -0.005131 -0.017225 -0.004128 -0.001902 -0.005612 0.009221 -0.019918 0.017815 -0.013196 -0.015140 
0:1679 -0.008889 0.008627 0.011010 -0.019448 0.007082 -0.008208 -0.006501 0.017306 0.019803 -0.004832 -0.002889 -0.002747 -0.012472 -0.002711 0.006368 0.002356 0.001089 0.002340 -0.010270 -0.012225 -0.019824 0.015035 0.007438 -0.000001 0.018146 
1:4974 0.002159 -0.012335 -0.003427 0.014569 -0.007815 -0.018065 -0.003596 0.015995 0.011366 0.005339 0.011811 -0.002607 -0.009060 -0.009762 -0.007086 0.010126 -0.003920 -0.014432 -0.018103 0.015445 0.009833 0.019251 0.008188 -0.016369 0.011167 
1:4822 -0.000904 0.006122 -0.018692 -0.012222 0.007840 -0.004301 0.002347 -0.011920 -0.000641 0.015741 -0.007314 0.007948 0.004253 -0.015055 -0.005076 -0.011898 -0.016300 -0.005418 0.000499 0.001527 0.017630 0.008904 0.010255 -0.019536 0.007461 
0:188 0.005155 -0.001799 0.012890 -0.000697 0.013767 -0.005470 -0.010245 -0.015063 0.001139 -0.014455 0.019577 -0.017756 0.005635 0.004947 0.008262 -0.019818 0.019852 0.015325 -0.005558 0.013950 0.009066 0.016646 0.013896 -0.003605 -0.018215 
2:7912 -0.005409 -0.004960 0.006308 0.002009 0.004546 -0.002277 0.003067 -0.002459 0.005577 0.001466 0.005959 0.010705 -0.009224 0.002428 0.004606 -0.014837 -0.001168 0.014950 0.003930 -0.001785 0.005151 -0.009920 0.003441 -0.004652 -0.006480 
0:2062 0.000536 0.008453 -0.000584 0.011361 0.008902 -0.007360 -0.012610 -0.019286 0.000403 -0.014571 0.013591 0.019757 -0.002746 0.011555 0.001162 -0.013886 -0.019113 -0.014794 0.004987 0.008527 -0.008704 0.009297 -0.014686 0.002609 -0.013248 
0:1424 0.018089 -0.009077 0.018207 0.017823 0.008117 -0.000572 -0.006149 -0.011487 -0.000725 -0.010532 -0.009842 -0.000904 -0.011206 -0.006758 -0.000312 -0.014084 0.018526 0.000533 0.001583 0.007638 -0.005430 0.016357 0.012958 -0.001708 0.000775 
2:10582 0.016648 -0.002299 -0.017327 0.018605 0.003758 -0.011609 -0.003681 -0.008259 -0.010938 0.014784 0.004589 -0.019259 0.005059 0.012843 0.015348 0.007891 -0.013101 0.004771 0.018895 -0.003103 -0.012854 0.001603 0.011612 0.013646 -0.016333 
2:6955 0.005428 0.003695 0.017549 -0.005696 0.011776 0.015606 0.008355 -0.004762 0.004000 -0.009330 -0.009578 -0.016894 0.011700 -0.004357 0.004829 -0.003842 0.011267 -0.017933 0.019637 -0.016483 -0.003390 -0.006147 -0.010717 -0.006072 0.010114 
2:10443 0.008692 -0.016481 -0.012363 -0.010261 -0.013273 -0.010355 -0.008049 0.013033 -0.002883 -0.002115 -0.007797 0.006124 -0.005644 -0.005264 0.004544 -0.018618 0.000092 0.011086 -0.007913 -0.011696 -0.018850 -0.006607 -0.006380 -0.015647 -0.017078 
1:4763 -0.014336 -0.007265 -0.010400 -0.002773 -0.018028 -0.011652 0.003953 -0.018532 -0.018577 0.010190 -0.019743 -0.003366 0.014667 0.010496 -0.007469 -0.010821 -0.017678 0.010281 -0.001961 0.012688 -0.006837 0.005879 0.014622 -0.017183 -0.002935 
1:2812 0.004279 0.001326 -0.010933 0.001211 0.017761 -0.006478 -0.018583 -0.009807 0.009985 -0.009707 0.013159 -0.019264 0.010837 -0.000272 0.009898 0.006198 -0.010774 0.002710 -0.007785 -0.016545 -0.014916 -0.009775 0.002663 0.012199 -0.014696 
0:538 -0.019348 0.018880 -0.010650 0.016451 -0.009649 0.000268 0.008140 -0.001867 0.014292 0.016926 -0.011798 0.000037 0.018629 -0.017229 -0.001266 0.000214 0.015115 -0.009514 -0.019115 -0.002987 0.018427 -0.016017 0.018188 0.017675 0.010075 
2:10728 -0.010285 0.001155 -0.004617 -0.010629 -0.003191 0.009253 0.012516 0.016451 -0.007486 -0.010875 -0.017144 0.014079 0.005501 -0.012716 0.010285 -0.016754 -0.010988 -0.013587 -0.004827 0.018183 0.007721 0.019024 -0.014079 -0.017245 -0.000989 
0:1415 -0.014511 -0.017689 -0.001018 0.009928 0.018494 0.017345 -0.010501 -0.000395 0.015818 0.019188 -0.011076 -0.019246 0.014506 -0.018447 0.006634 -0.014353 0.010989 0.001866 0.017379 -0.011889 -0.012564 -0.011794 0.006564 0.012435 0.000850 
0:1894 0.012167 -0.011624 -0.002386 0.013112 0.017259 -0.005786 -0.019590 0.001016 -0.005051 -0.006276 -0.008620 -0.015810 0.012006 -0.011930 -0.006958 0.008465 0.015620 -0.016166 -0.012224 0.005789 -0.002826 0.013185 0.013505 -0.001369 0.001328 
2:10835 -0.013733 0.005530 0.002322 0.008837 0.003535 -0.019284 0.005295 0.012639 -0.004662 0.009075 -0.004531 0.019161 0.017429 -0.001583 0.017121 0.009748 0.019883 -0.016897 0.011180 0.009443 -0.013858 -0.000450 -0.001630 -0.003761 0.013229 
0:2623 -0.003962 0.012899 0.006854 0.009905 0.016173 -0.017632 0.006994 -0.011100 0.012811 0.002661 0.005140 0.012613 0.000418 0.014762 0.015742 -0.015071 -0.004709 -0.002612 0.005976 -0.010505 -0.007149 0.017820 0.007204 -0.004340 -0.007515 
2:8720 -0.014808 0.003357 0.007282 -0.006507 0.006241 0.018525 0.007129 -0.008456 0.011614 -0.018712 -0.016478 -0.012505 -0.010512 0.005905 0.006429 -0.015008 0.009961 -0.019746 -0.012865 -0.015695 -0.000832 -0.015904 0.000968 0.012873 0.005686 
1:3025 -0.015648 -0.018554 0.004724 0.017535 -0.015688 -0.004334 0.019316 -0.006094 0.014427 0.004842 -0.018512 -0.003735 0.001051 -0.019300 -0.012893 -0.006495 0.017065 -0.008570 -0.006787 -0.008374 -0.012890 0.000492 -0.014770 -0.016540 -0.002479 
0:1016 0.019957 -0.012610 -0.015587 0.009618 -0.019920 -0.013375 0.009696 -0.014214 0.013231 -0.015940 0.018123 -0.013120 -0.009847 0.002543 -0.001755 -0.008664 -0.010369 0.002267 -0.015852 0.001182 0.012205 -0.009407 0.003405 -0.002206 0.017942 
0:1774 -0.011270 -0.017984 -0.007797 0.004507 0.013449 0.010420 0.000614 0.019216 0.013385 -0.015145 -0.010075 0.014857 0.002481 0.000396 0.010202 0.019473 -0.012240 0.016139 -0.004366 -0.018715 -0.004867 -0.015893 0.001676 -0.010463 0.001087 
0:1232 0.000517 -0.001360 0.009238 0.014707 0.002244 0.012225 0.012855 0.000156 -0.007797 -0.001566 0.007077 0.012726 0.014492 0.015466 -0.004491 0.000835 -0.019933 0.012991 -0.016748 -0.016234 -0.011962 0.019564 -0.011998 -0.002863 0.003824 
2:10197 0.013564 -0.012709 0.005389 -0.016421 -0.007631 0.000188 0.019117 -0.017439 0.016722 -0.004396 0.008665 -0.004943 0.013212 0.002325 0.000528 0.018290 0.006747 -0.013326 0.014436 0.019098 0.008391 0.011516 -0.009008 -0.008715 0.007466 
2:10897 0.004506 0.010446 -0.008988 -0.001850 -0.005697 -0.013238 0.005406 0.004712 -0.013871 -0.013877 0.019200 0.003917 -0.004103 0.001248 -0.014269 -0.003565 -0.005851 0.019309 0.000664 -0.002928 0.014454 0.003342 0.019931 0.003291 0.015116 
1:4224 -0.008159 0.000170 -0.005031 -0.003811 -0.019505 -0.012796 0.014232 -0.019593 -0.011745 0.002237 0.018401 0.018247 0.013872 0.000163 0.019734 -0.016740 -0.018180 0.006447 -0.018381 0.009265 0.011228 0.003459 -0.013112 -0.015431 0.019396 
2:9499 0.005502 -0.002013 -0.010730 -0.017340 0.001181 -0.002796 -0.005702 -0.003604 0.002948 0.010401 -0.006151 -0.006844 -0.009106 -0.010852 -0.017944 0.018848 -0.008659 0.005351 0.006310 -0.003108 0.009643 0.003058 0.011945 0.016631 -0.017923 
1:5107 0.000971 -0.006087 -0.018466 0.013885 -0.007934 0.005107 0.013049 0.014808 -0.011772 -0.015730 0.010675 0.014204 -0.019365 0.014119 0.003000 0.011089 0.013867 0.016943 0.005140 0.000175 -0.008807 0.009180 0.007225 0.015465 0.002871 
1:4578 -0.000257 -0.017399 0.015614 -0.012386 0.013365 -0.007895 0.019935 0.002162 0.010041 -0.002179 -0.001136 0.001740 0.016602 0.013029 0.001424 -0.013926 -0.000257 0.018703 0.003055 -0.003327 -0.011287 -0.004285 -0.012101 -0.005223 0.017892 
1:2681 0.018911 -0.018479 -0.003776 -0.008215 0.008600 -0.002594 -0.004398 0.015767 0.012354 0.012887 -0.008619 0.015339 -0.000989 -0.007390 0.019746 -0.010515 0.007480 0.013783 0.014176 0.003021 -0.008551 -0.006862 0.003676 -0.005308 -0.001145 
2:9810 -0.008299 0.019432 -0.002027 -0.019593 -0.009620 -0.013820 0.017226 -0.004570 0.013051 -0.014853 0.016528 0.015234 0.006866 -0.006328 -0.019674 -0.014041 0.016642 -0.007185 -0.016762 0.014563 -0.019586 0.009262 0.005039 -0.017731 0.007731 
2:7622 0.010854 0.011228 0.006625 -0.011833 0.000446 0.003896 -0.006566 -0.000532 0.009843 0.012989 0.015976 0.018994 -0.015870 -0.009682 -0.012209 0.008430 -0.019169 0.001043 0.012786 0.004448 -0.011110 -0.009250 0.015337 0.014776 0.016038 
1:4019 0.001070 -0.010815 0.012797 -0.013646 -0.019214 -0.000659 0.012006 0.011761 0.003721 -0.001774 -0.016808 -0.007267 0.009951 0.002848 -0.007340 0.019611 -0.016440 0.019351 0.016073 -0.001534 -0.018718 -0.007611 -0.008136 -0.001677 -0.009978 
1:4586 0.010797 0.005553 -0.000719 -0.011815 0.018220 0.001878 -0.000427 0.003510 -0.007591 -0.019112 -0.010786 0.003182 -0.008881 -0.001383 -0.004750 -0.005940 -0.019658 0.007398 0.003737 -0.003910 0.018044 -0.001834 -0.004706 -0.017267 -0.004808 
2:10631 -0.003991 -0.010571 -0.000486 0.007469 -0.005786 0.018427 0.003189 0.004405 -0.009018 0.018534 0.015552 -0.018762 0.009765 0.015265 0.016053 0.008612 -0.019317 -0.003632 -0.012773 -0.001602 0.017956 -0.012604 0.009233 -0.008829 0.017822 
0:2640 0.015661 0.004225 -0.000895 0.008363 0.005331 0.017065 -0.004927 -0.010697 -0.010702 0.019692 0.009152 -0.016562 -0.019272 -0.014724 0.017266 -0.015226 0.002392 0.014301 0.000003 0.016681 0.006434 0.002469 0.015305 0.013671 0.003542 
2:7152 -0.008667 -0.005994 0.018697 0.019546 0.007121 0.014518 0.006963 0.004224 0.012812 -0.013683 -0.017195 0.002939 0.008374 -0.009828 0.016412 0.000174 -0.018771 0.012604 -0.011276 -0.015382 -0.010660 -0.012537 0.000608 0.005342 0.001944 
1:6509 -0.005902 0.000352 -0.002278 0.005292 -0.017669 -0.002145 0.017040 0.012918 0.010257 -0.011998 -0.014290 0.000334 0.018559 -0.011492 -0.004259 0.014528 0.019210 0.016901 0.008811 -0.013964 -0.007474 -0.016247 0.002190 0.009463 -0.001403 
2:8802 0.012309 -0.018074 0.001777 0.006968 -0.010911 -0.014544 0.011391 0.001044 -0.001640 0.014476 -0.006259 -0.015821 0.005787 0.018118 0.012614 0.012664 0.009290 -0.000928 -0.001102 -0.006421 0.013580 -0.015928 0.006918 0.007317 0.007209 
2:9001 0.016761 0.017701 0.016246 -0.006150 -0.001102 0.010124 -0.004682 0.019462 -0.003188 -0.003013 -0.006774 0.006045 0.000074 0.005815 0.001240 0.016332 0.012496 0.014671 -0.011640 -0.011866 0.005950 0.001316 0.009891 0.019270 -0.007942 
0:1341 -0.017210 0.003870 0.005359 0.015031 -0.010942 0.007499 -0.011008 0.005951 -0.012626 0.005887 -0.002087 -0.013543 -0.007085 0.003244 -0.019715 0.015909 -0.000698 0.007987 -0.019103 -0.005660 -0.006324 -0.002854 0.015810 0.013815 0.001519 
1:6040 0.017973 -0.005339 0.011378 -0.015805 -0.008939 -0.006197 -0.004655 0.002512 -0.000217 0.004666 -0.006002 0.000812 0.000453 0.008615 -0.014855 -0.018156 0.011612 -0.010647 0.016937 -0.013733 -0.013257 0.009951 0.001540 0.010134 -0.015726 
0:1124 0.001040 -0.000973 -0.014687 0.015061 -0.003341 -0.016354 -0.003266 -0.010346 -0.013203 0.007280 -0.013614 0.006781 -0.009090 -0.014457 -0.008862 0.002530 -0.018278 -0.002619 0.000576 -0.008410 0.011035 0.011541 -0.007446 0.011469 -0.002638 
2:8704 -0.016558 0.002750 0.014709 0.011482 -0.000591 -0.012233 0.017131 -0.015915 -0.018334 0.002812 0.006116 0.006494 -0.008456 0.006015 -0.000981 -0.003877 -0.005583 0.018473 -0.018218 0.011353 -0.007897 0.001130 0.013998 0.011490 -0.008406 
1:6651 -0.012311 0.015817 -0.013239 -0.006434 0.007870 -0.016943 -0.012140 -0.001037 0.012297 0.013792 -0.003145 -0.005109 -0.014045 0.015898 0.015429 -0.014910 -0.019376 -0.004234 -0.007890 -0.015550 0.014464 0.008976 0.007461 0.012889 0.003285 
2:11595 0.006529 0.001338 0.004295 0.004989 -0.004846 -0.019009 0.006233 0.009259 -0.017385 0.006467 -0.004691 0.007535 -0.014584 -0.012904 0.017772 0.008177 0.012711 0.019247 -0.002045 -0.000299 0.018470 0.019748 0.019118 0.003903 0.018213 
0:1570 0.015609 0.011125 -0.007677 0.004594 -0.003332 0.001981 0.017542 0.005101 -0.003385 0.016536 0.017495 0.010684 -0.016450 0.014085 0.012061 -0.015413 -0.009963 -0.017693 -0.010442 -0.002858 0.009277 -0.005685 0.007503 -0.009879 0.012922 
3:12503 -0.006044 0.001346 0.009083 -0.017597 -0.008595 -0.016228 0.013155 -0.008398 -0.012366 0.002866 0.012324 -0.005948 -0.016616 -0.005685 0.012550 0.014838 -0.019493 -0.001131 -0.016709 0.013893 -0.019394 -0.011474 -0.014168 -0.010872 -0.003486 
2:8461 -0.017433 -0.005762 -0.008851 -0.005106 -0.008674 -0.016641 -0.006773 0.018160 0.015426 -0.010872 -0.019551 0.000148 0.005834 -0.018142 0.013514 0.013105 -0.011997 -0.003365 -0.016069 0.009196 -0.008679 0.017568 0.006322 0.019563 -0.009302 
2:10707 -0.019199 -0.005517 0.019606 0.018086 -0.017092 0.000506 0.004671 0.016645 -0.011771 0.017824 -0.018982 0.018179 -0.006962 -0.000010 -0.001510 -0.010421 0.019998 -0.017439 -0.003307 0.001447 -0.011556 -0.001589 -0.011529 -0.017006 -0.001391 
2:7157 -0.001692 0.002793 -0.006192 0.019938 -0.004283 -0.000562 0.012471 0.005508 -0.017939 -0.012291 0.013813 0.010317 0.004435 -0.004984 0.019658 -0.011657 0.017572 0.010299 -0.003497 -0.014481 -0.012284 0.009018 -0.008939 -0.007412 0.014036 
0:1558 -0.017476 0.001628 -0.004438 -0.015488 -0.008593 -0.010016 -0.017077 -0.016054 0.008657 -0.006812 0.018572 0.007028 0.015988 0.004401 -0.008241 -0.015559 -0.002366 0.018902 -0.011922 -0.009622 -0.016474 -0.011839 -0.010273 -0.002643 -0.011360 
1:3726 -0.010469 -0.003501 -0.008192 0.002593 0.016357 -0.009074 -0.014715 0.015860 -0.018386 -0.017321 -0.009057 0.013036 0.015519 -0.019613 -0.011308 -0.010948 -0.012242 0.018700 0.012327 0.002732 0.003578 0.002518 0.010146 -0.007469 0.019696 
1:4971 0.018825 -0.018567 -0.016954 0.014645 0.017960 -0.008338 0.005327 -0.014336 -0.005736 0.006143 0.000890 0.003044 -0.001073 -0.009518 -0.004834 0.009178 0.017639 0.003290 -0.000244 -0.010715 -0.004246 0.008582 -0.000937 0.009724 -0.002140 
2:11648 0.016088 0.008919 -0.019050 -0.011909 0.003775 0.010173 -0.017959 -0.013493 0.005380 0.008792 0.007237 -0.017915 0.009200 -0.013274 0.012287 -0.017269 -0.015619 -0.014424 -0.017485 -0.010525 0.011918 0.019676 0.000719 0.008642 0.016106 
2:7985 0.014037 -0.013055 0.002820 -0.019257 -0.009341 -0.002312 0.010691 0.000572 -0.012257 -0.011197 -0.009857 -0.003047 -0.008584 0.001635 -0.005577 0.005487 0.001907 0.018010 -0.007010 0.019804 -0.001969 -0.014141 0.010078 0.015822 0.014812 
0:2101 -0.009333 0.001603 -0.001985 -0.009167 0.018455 -0.001133 -0.000442 -0.013929 0.002519 -0.011620 -0.000709 0.001291 -0.007202 0.010645 -0.005100 0.012438 0.019459 -0.010263 0.001375 0.018550 -0.013018 -0.007959 0.005951 0.014293 -0.002744 
3:12963 0.001590 -0.013093 -0.009780 -0.009249 -0.015044 -0.012623 -0.003661 0.002903 -0.011673 -0.000807 -0.018914 -0.004759 -0.019906 -0.004126 0.014343 -0.018421 -0.004278 0.010927 0.008824 0.006368 0.001561 0.002734 -0.007336 0.005274 0.018183 
2:10298 -0.004992 0.000858 0.004355 0.014629 0.002725 -0.017205 0.003740 -0.004620 -0.004029 -0.006927 -0.019183 -0.008843 -0.007948 -0.004246 0.017423 -0.003424 -0.004226 0.014953 0.018130 -0.000020 0.009225 0.015039 -0.002698 0.011287 -0.002318 
0:1557 0.010410 0.004205 -0.006371 -0.001552 0.011820 0.010971 -0.000507 0.008233 -0.007441 0.006201 0.018155 -0.016969 -0.010599 0.003674 0.016324 0.018511 -0.000799 -0.011560 -0.015569 -0.004777 -0.004305 0.007756 0.013850 -0.010930 -0.004852 
0:2180 0.000501 -0.011573 0.006444 0.002536 0.013557 0.004783 0.011941 -0.001330 -0.019318 -0.007920 -0.007532 -0.009420 -0.000895 0.008484 0.014089 -0.008936 -0.016798 0.004709 0.003000 -0.010611 0.013010 0.015872 0.016340 0.019966 -0.002962 
2:7235 0.006709 0.000289 -0.017672 0.015036 0.013105 -0.011025 0.000966 0.010810 -0.010978 -0.001780 0.017345 -0.013609 0.018918 0.009426 0.017749 0.002535 -0.007584 -0.012232 -0.018631 -0.005457 0.009639 0.004301 -0.017659 0.013556 -0.014587 
0:2517 0.001264 -0.004567 -0.019746 0.006614 -0.007734 -0.005132 0.012927 -0.012299 -0.017597 -0.000811 0.014131 -0.017975 -0.006469 0.013993 -0.015885 0.006941 0.000033 0.009484 0.017216 0.019670 0.004585 0.018505 0.009187 -0.016154 -0.008814 
1:6563 -0.018429 -0.002388 -0.000758 0.008890 0.014342 -0.015876 0.003947 -0.009568 0.004402 0.010306 -0.004340 0.003313 -0.010943 -0.008668 -0.013251 -0.009325 -0.013238 0.004060 -0.000927 0.007855 0.014292 -0.011739 -0.011795 -0.001711 0.007060 
1:5561 -0.002494 -0.014157 0.001609 -0.016779 0.011325 0.010853 -0.019461 -0.005680 0.001431 -0.000892 -0.013441 0.009573 -0.009963 -0.011957 -0.007001 0.016595 -0.007241 0.015165 0.005106 0.010633 0.007684 -0.017532 -0.002365 0.016289 0.000605 
2:7360 0.017273 0.004861 -0.000232 -0.005916 0.006480 -0.006706 -0.003884 0.012106 -0.006615 -0.002277 0.009683 -0.016737 -0.016704 0.009258 -0.019831 -0.004447 0.000716 -0.014149 -0.015556 -0.001932 0.002541 -0.014098 -0.001580 -0.004983 -0.010992 
0:2125 0.017232 -0.018162 0.018346 -0.002747 -0.000326 -0.018811 0.019020 -0.000266 0.013700 0.009998 -0.015188 0.006750 -0.010215 -0.003392 -0.015985 -0.004551 0.009153 -0.001639 0.019076 0.004536 0.000726 0.010730 -0.016490 -0.008040 -0.009398 
0:711 0.008838 -0.000151 0.000306 -0.017233 -0.001554 0.005371 0.007501 0.018544 -0.005757 0.005425 -0.010636 -0.007488 0.018411 -0.001785 -0.010589 -0.003231 -0.006012 0.007769 0.013830 0.015251 0.017024 -0.010070 0.018244 0.001631 -0.017450 
2:12422 -0.008628 -0.014787 0.017490 0.019376 0.008811 0.011149 -0.006844 0.005024 -0.016358 0.005725 0.015393 0.003597 -0.018145 0.017766 -0.004091 -0.009920 -0.000075 -0.017248 0.013254 0.004104 0.015067 -0.010345 -0.019390 -0.015520 0.007605 
0:2554 0.009541 -0.016236 0.000124 -0.015779 0.008763 -0.013356 0.010411 -0.019222 -0.007940 0.004474 -0.001447 0.010929 0.015571 -0.005274 0.016628 -0.011887 -0.001557 0.017433 -0.002026 0.018115 -0.005694 0.014802 0.010428 0.019277 0.017811 
2:8896 0.005599 -0.002450 -0.003448 -0.003383 0.017344 -0.004505 -0.017181 0.018005 0.011056 -0.017588 0.002591 0.018557 -0.001515 -0.015970 0.010651 -0.006899 -0.013516 0.002440 -0.017810 -0.016615 0.002974 0.011246 0.008134 0.000901 -0.005392 
2:7896 -0.005838 0.009083 0.002848 0.014407 0.017869 -0.001352 0.002148 -0.009024 -0.008984 -0.008388 -0.006694 0.010054 -0.005230 0.001010 -0.003806 -0.014011 0.019227 0.010739 0.014152 0.018444 -0.011257 0.006801 0.016420 0.018296 -0.010876 
0:2137 0.007514 -0.001575 -0.008498 -0.011584 0.019824 0.000448 -0.014244 0.003291 0.011843 -0.010860 0.012551 -0.008259 -0.003976 -0.016660 -0.018227 -0.010044 -0.009944 -0.013213 -0.005089 -0.015618 0.001049 0.004753 -0.008032 0.009411 -0.017915 
0:1367 -0.013361 0.016577 0.001865 -0.008322 -0.005997 -0.000859 -0.000447 -0.012340 0.017853 0.009692 0.008976 0.005338 0.009395 -0.010427 -0.018211 0.015631 -0.011794 0.019821 0.002766 -0.005025 -0.005991 0.002788 -0.019312 -0.007630 0.011970 
1:4458 -0.002396 -0.008167 -0.002443 0.005888 -0.002722 0.006415 -0.000721 -0.004939 -0.007318 0.014424 0.019422 -0.003452 0.006314 -0.012975 0.015213 0.002112 -0.006356 0.009213 0.015934 0.009797 0.000846 -0.012069 0.010418 0.009786 0.000718 
0:541 0.015203 -0.005758 -0.001737 0.001982 0.007694 0.003504 -0.006384 -0.017746 0.004139 -0.017068 -0.010594 0.006632 0.001979 0.019239 0.017202 -0.004954 -0.009320 0.002553 0.007021 -0.011168 -0.004487 -0.006271 0.019429 0.002300 0.005371 
2:10092 0.013168 -0.002084 -0.013840 0.016667 0.009157 0.000132 -0.014214 0.016919 -0.019532 -0.003841 -0.015714 -0.007127 0.014812 -0.003330 0.019561 0.003808 -0.019082 0.019068 -0.019279 0.014675 -0.007521 0.002535 0.019806 0.016273 0.010183 
2:9269 -0.006787 -0.017041 0.009880 -0.009518 0.013945 -0.011604 -0.003179 -0.019838 0.009298 0.010961 0.016917 -0.012767 0.009864 -0.018890 0.007274 0.006699 0.003681 0.011520 -0.014508 -0.013061 -0.009878 0.002246 -0.002080 0.019907 -0.006360 
2:8184 -0.010841 0.015588 -0.012654 0.004385 0.019099 0.007277 -0.013229 -0.006145 0.011773 0.005798 -0.018269 -0.019316 0.005363 -0.006446 0.009752 -0.010116 -0.008813 -0.018578 0.010312 -0.017275 -0.003881 0.002255 -0.014739 0.011428 -0.018115 
0:1550 0.015735 0.012153 -0.002691 -0.008439 -0.019517 0.003491 -0.000987 0.015078 0.015894 0.005287 -0.015265 0.013021 0.000646 -0.001472 0.013075 -0.003087 -0.011080 -0.004297 -0.015349 0.003871 0.003800 0.000103 0.006127 0.015837 -0.019119 
1:6616 -0.005986 -0.002559 0.009486 -0.011431 0.016854 0.008902 -0.018508 0.016806 0.017527 0.008785 0.017935 -0.014588 -0.017098 0.001100 -0.014236 0.016278 0.003679 0.014082 0.002185 0.008386 -0.001433 -0.019343 0.006391 -0.017099 0.012249 
2:11417 0.007467 -0.001620 0.001153 0.004323 -0.005185 -0.013285 0.019243 0.019363 0.013834 0.013507 0.015543 0.011001 -0.010202 0.008570 0.009410 -0.001773 -0.011240 0.011721 -0.013185 -0.011756 0.003835 -0.008727 -0.003678 -0.015985 0.015921 
0:1115 0.018259 -0.006219 0.012870 -0.003927 -0.008110 0.013476 0.001936 0.019024 0.004552 0.018475 -0.016693 0.000049 -0.003366 -0.017072 -0.015166 0.001355 0.006554 -0.005395 -0.007271 0.014249 0.007326 0.008264 0.015854 -0.006806 -0.010479 
2:8560 0.003546 0.013940 -0.018706 0.011162 0.013211 0.019828 -0.013223 0.012666 0.019141 0.011464 -0.011122 0.018448 0.018420 0.001487 -0.005543 -0.014670 0.011437 0.012782 -0.005488 -0.008882 -0.017856 0.003175 -0.003463 -0.004568 0.011945 
1:5156 0.006292 -0.000187 0.004199 -0.001032 -0.007225 -0.001623 0.004570 -0.014973 -0.011902 -0.000350 -0.003567 -0.005955 0.008725 0.019052 -0.015424 -0.012596 -0.013601 -0.004988 0.006571 -0.002470 0.019589 0.019854 0.015385 0.013740 -0.006219 
0:2550 0.014347 -0.017300 0.013821 0.004163 0.015665 0.003648 0.003977 -0.014468 -0.010068 0.007267 0.010545 0.002134 -0.014166 -0.010346 0.017120 0.004086 0.010935 0.000180 -0.004756 -0.016276 -0.000756 0.007940 -0.003427 -0.018164 -0.014373 
0:2414 -0.002418 -0.019115 0.004115 0.011905 -0.016130 -0.002484 0.017469 -0.006762 -0.013116 -0.019733 -0.000979 -0.004599 -0.010163 -0.016878 0.008880 0.010817 -0.006656 0.010792 0.007502 -0.009077 0.000176 0.009034 -0.013385 -0.008746 0.006756 
0:361 0.016959 -0.018583 -0.017786 0.009801 -0.008769 0.017244 -0.015872 -0.008903 0.010617 0.008030 0.015724 0.015336 -0.018477 0.009696 -0.000524 0.019842 -0.014143 0.004749 -0.012054 -0.003920 -0.013430 -0.008105 0.001337 0.008033 0.011037 
1:6546 -0.004063 -0.010393 -0.015959 0.014914 -0.019379 0.011025 -0.019684 0.008435 -0.001741 -0.013540 0.011631 0.017375 -0.014072 0.005529 0.011463 0.005666 -0.013344 -0.008893 -0.015932 0.010092 -0.019196 -0.009326 0.009237 0.007110 -0.016190 
2:11382 0.012591 0.001743 -0.011531 0.006534 0.006595 0.000311 0.001208 0.008618 0.002855 -0.006660 -0.000162 0.006559 0.001888 -0.001124 0.006302 -0.012607 0.009119 0.005744 0.005632 0.010902 -0.010600 0.004073 0.003917 -0.017459 -0.015561 
1:4443 0.007369 0.005621 -0.004157 -0.011751 -0.016949 0.008215 0.003621 0.019331 -0.016824 -0.005769 0.013879 0.018368 -0.009076 -0.006629 -0.004200 0.018354 0.005059 0.013189 -0.007623 0.011303 0.002266 0.019650 -0.004813 0.017103 -0.013815 
2:8544 0.016439 -0.001966 0.010486 -0.002551 0.014178 -0.004192 0.012257 -0.012895 -0.001059 -0.001460 -0.015901 -0.012045 0.005033 -0.005987 0.005552 0.016730 -0.010142 0.015817 0.007068 0.019481 0.013814 -0.013454 0.005577 0.007076 0.000849 
0:961 -0.000700 -0.017968 -0.009203 0.001569 -0.000300 0.009286 -0.017826 -0.000572 0.011877 0.011560 -0.002817 0.012950 0.000806 -0.011698 0.004051 0.009928 -0.018465 0.013512 0.007001 -0.014554 0.019040 -0.011625 0.006258 0.016097 -0.010148 
2:11945 -0.011367 -0.018946 -0.003903 0.014863 -0.004683 -0.016917 -0.003452 -0.012968 -0.014421 0.013420 0.008010 -0.019607 0.004455 -0.012637 -0.000085 0.005295 -0.014909 0.002673 -0.010407 0.010973 -0.013150 0.018156 -0.015626 -0.019051 -0.002629 
1:2818 0.018010 0.015647 -0.010273 -0.013661 0.008520 -0.000068 -0.003796 -0.002463 -0.016657 -0.011154 -0.000241 0.011267 0.014090 0.005345 0.012301 -0.012595 -0.003380 -0.000123 -0.013859 0.007336 0.008106 -0.005192 0.013782 -0.014635 -0.012091 
1:6928 0.016805 -0.012125 0.012406 0.004790 -0.008975 0.000139 -0.017287 0.013748 -0.006691 -0.009331 0.003743 0.002523 0.010844 -0.003654 0.017050 0.006523 -0.005706 0.008678 -0.007893 0.016079 0.006723 -0.009158 -0.016106 0.012386 0.010457 
0:2308 -0.014094 0.005915 0.015865 -0.011054 -0.018203 -0.003623 0.012664 0.019138 -0.001036 -0.008857 -0.002307 -0.016344 0.007751 0.016621 0.000084 -0.019153 0.005807 0.008524 -0.005964 -0.010959 0.009391 -0.015942 0.002794 -0.004033 0.006380 
2:8113 0.015242 0.017485 -0.011926 0.003592 -0.011806 0.001121 -0.004776 0.017271 0.017043 0.018844 0.004571 -0.001982 -0.016126 -0.018048 0.016316 0.002853 -0.014227 0.018238 -0.014783 -0.008128 -0.011168 -0.014462 0.017292 -0.002675 -0.001489 
0:157 0.005643 0.007724 -0.007288 0.007557 0.009471 -0.014490 0.010214 0.012292 0.007552 0.016094 0.013107 0.015036 0.009255 0.014561 -0.013539 -0.016708 0.008282 -0.003553 -0.014063 0.011330 0.003747 0.000772 -0.017863 -0.005983 0.013007 
0:519 -0.002722 0.011128 0.013354 -0.011678 0.010608 -0.012474 -0.014180 0.004163 0.002606 0.016869 -0.006915 0.007253 0.009606 0.014387 0.015993 -0.009073 -0.014267 0.011276 -0.012709 0.013145 0.004458 -0.006287 0.003404 0.000447 -0.006015 
0:295 0.004784 -0.018752 0.008198 0.007813 0.016956 0.007765 -0.014365 0.018050 -0.010897 0.003317 -0.016876 -0.011053 0.019446 -0.003322 0.012944 0.010966 0.004216 0.015671 0.003191 -0.010013 0.003138 -0.019660 0.007719 -0.003397 -0.003678 
1:2771 -0.008758 -0.014725 0.009265 -0.015826 0.006815 0.001005 0.013033 0.010297 -0.001392 0.018506 -0.004302 0.013593 -0.012260 0.018591 0.017111 -0.003607 0.014766 0.018887 -0.011873 0.014715 -0.013279 -0.007981 0.010272 0.014918 -0.012385 
0:1102 0.011440 0.000211 -0.003797 -0.017271 0.008477 0.006174 0.007967 0.015138 0.013623 -0.011519 0.006392 -0.002694 -0.015624 -0.004603 -0.007812 -0.003083 -0.015040 0.002016 -0.018558 0.011589 0.013201 -0.019486 -0.000177 -0.001258 0.003109 
0:363 -0.007702 -0.000326 0.019699 0.016230 0.016780 -0.011787 -0.008609 0.001340 -0.019054 0.012457 0.015675 0.000688 -0.004530 0.000018 0.014717 -0.019078 0.014272 -0.017542 0.018101 -0.005631 -0.015813 0.005093 0.019687 -0.013986 -0.001593 
1:2723 -0.002119 -0.018148 -0.008870 -0.004148 -0.019182 -0.019854 -0.007414 0.017957 -0.003540 0.008198 -0.015326 -0.001070 0.017135 -0.011835 0.018900 -0.007976 -0.017027 0.018708 0.010893 -0.010310 0.000729 0.014806 0.010960 -0.012712 0.019585 
2:10632 -0.010956 0.012045 0.013760 0.008617 -0.014245 -0.007410 -0.012754 -0.009801 -0.013695 -0.017095 0.005814 0.013855 0.010690 0.002422 -0.012599 0.019029 -0.001396 -0.008771 0.017376 0.001386 -0.005953 -0.011555 -0.009759 -0.011472 -0.016173 
3:12956 -0.012499 0.013915 -0.002038 -0.001788 0.004474 0.011717 0.005007 0.003594 0.005085 0.015389 -0.014918 -0.012680 0.017449 -0.000743 0.011918 -0.004031 -0.015048 0.005011 0.005123 0.003201 -0.000300 0.018822 0.019116 0.008314 -0.016222 
0:164 -0.008951 -0.000233 -0.002710 -0.007481 0.009975 0.000278 -0.001628 0.014876 -0.003072 -0.015643 -0.011041 0.011803 0.011947 0.004834 0.018461 0.015832 -0.016110 0.017776 0.011613 -0.015635 0.013208 -0.002658 0.010766 -0.016439 0.009768 
0:2146 0.002258 0.015003 0.003640 0.019099 0.019700 0.000986 0.004067 -0.009639 0.015603 0.013866 0.002731 -0.018913 0.000554 0.003532 0.014675 0.005728 -0.017715 -0.017251 -0.017131 0.008325 0.004169 0.010691 0.008161 -0.011566 -0.002532 
0:1328 -0.003340 0.009503 0.005308 -0.017402 0.003572 -0.001006 0.011779 0.017449 -0.003142 0.001187 -0.013188 -0.011995 0.002812 0.012812 0.001670 0.005853 -0.003860 0.006433 -0.004566 0.005926 0.015819 0.001077 -0.015623 -0.000258 -0.014337 
2:10550 -0.013216 -0.008079 0.014598 0.004079 0.010458 -0.016231 0.017385 0.009954 -0.007177 0.009644 -0.006306 0.004824 -0.007407 -0.016638 0.011535 -0.007255 -0.007190 -0.006521 0.016264 0.008236 -0.002992 0.017445 -0.003107 0.019398 0.010648 
2:7227 0.016272 -0.007555 -0.006874 -0.012332 0.016554 -0.010112 0.005559 -0.012833 0.013129 0.002651 0.000666 -0.013501 0.003456 -0.015368 -0.019560 0.002006 0.005965 0.016830 0.005054 -0.003289 -0.017264 0.011348 -0.005448 -0.008665 -0.010283 
1:5735 -0.015873 -0.012116 -0.013539 0.006921 0.018388 0.005709 0.011022 0.016812 -0.009308 -0.005306 -0.017644 0.019006 0.012610 0.001382 -0.008920 -0.015920 0.004900 -0.001845 0.002250 0.014170 -0.000346 0.012350 0.000699 0.003757 -0.018417 
1:5909 -0.014957 0.005702 0.007469 -0.019848 -0.017652 0.017245 -0.000678 0.008979 0.017375 0.008118 -0.002999 -0.015127 0.009226 -0.013710 0.016369 0.014100 0.019365 0.008083 -0.011006 0.002485 -0.015666 0.005709 -0.007253 -0.007408 -0.019831 
1:3063 -0.000182 -0.013615 -0.005580 0.018830 0.009765 -0.010284 0.012336 0.019833 0.012270 -0.005885 0.009544 -0.015053 0.001876 0.006119 -0.005103 0.007337 -0.002598 0.009612 0.019565 0.007829 -0.015120 -0.005477 0.011090 0.006767 -0.018338 
1:6364 0.010419 0.007697 0.010660 -0.014111 -0.008837 -0.015914 -0.004409 -0.018161 -0.001209 0.014343 -0.001211 -0.006949 0.001335 0.000433 -0.004344 -0.008516 0.011299 0.013166 -0.011179 -0.008300 -0.000757 0.012204 -0.003916 -0.002503 -0.004636 
0:2228 0.019390 0.008402 0.001290 0.004315 0.018013 0.000893 -0.016701 0.014510 -0.012694 -0.004615 -0.012454 0.007007 0.015060 -0.004055 0.013489 -0.001814 0.010299 -0.011736 0.004238 0.006209 0.003578 -0.006351 0.009320 -0.005572 -0.014204 
2:9939 0.017400 -0.012730 0.018535 0.010735 0.013635 0.007232 0.009805 -0.006928 0.019154 -0.005618 -0.011436 0.000348 0.011713 0.009241 -0.016224 -0.001846 0.010746 0.000404 0.007067 0.018751 0.005056 -0.016444 0.017705 0.018021 0.008418 
2:11013 0.007378 0.009114 0.012874 0.015690 0.002394 -0.018670 -0.000281 -0.007064 -0.010592 0.002373 -0.005487 -0.011613 0.002858 -0.009870 0.015132 -0.008674 0.017156 -0.002085 -0.003233 0.007780 0.005813 -0.015901 0.017421 -0.014470 -0.013599 
2:7386 -0.004672 0.018009 0.005331 -0.000771 0.018634 -0.008082 -0.016385 0.002945 0.005565 0.001846 0.019177 0.004381 -0.019012 -0.018527 0.004953 -0.016148 0.016956 -0.000629 0.008306 -0.003699 0.004382 0.004323 -0.001443 -0.018462 -0.010393 
1:3114 0.009991 0.009013 -0.012996 -0.002732 0.000230 -0.012457 -0.008987 -0.018310 0.002009 0.007722 0.008403 -0.013093 -0.006399 -0.011883 0.010079 0.005547 -0.000135 -0.013852 -0.007300 0.009654 0.014456 0.007629 0.001622 -0.019438 0.012856 
2:12259 -0.005253 -0.005265 -0.011283 -0.016061 0.005444 0.009545 -0.016660 -0.007733 -0.007416 0.016604 -0.011608 -0.013245 0.013782 0.003500 -0.009068 -0.010320 0.002214 -0.008896 0.009143 -0.000917 -0.011921 -0.016251 -0.007392 -0.017367 -0.007414 
1:6203 -0.008234 -0.003956 -0.004184 0.016678 0.012812 0.007726 0.015872 0.010050 -0.015494 -0.019614 -0.016724 0.012336 0.006021 -0.004514 -0.009495 -0.019419 -0.013186 -0.004813 -0.004626 -0.004218 -0.001803 0.010869 -0.015866 0.008614 0.010455 
0:1621 -0.010710 0.011046 -0.002199 0.018837 0.019930 0.016829 -0.006813 0.001118 -0.006113 -0.000717 -0.014414 0.019857 0.014408 -0.003581 -0.005870 -0.004525 0.001400 0.019660 0.019701 0.015099 0.013496 0.016004 -0.012120 0.016659 -0.017292 
2:8387 0.003380 -0.004211 0.004814 0.018801 -0.019239 0.012627 -0.000112 -0.000702 -0.001837 0.010024 0.016401 -0.012852 -0.001763 0.010864 0.010848 0.014975 0.007306 0.013777 0.018736 -0.009945 -0.005071 -0.018095 -0.003018 -0.016418 0.009958 
0:2448 -0.010223 -0.008309 0.005544 -0.016983 0.001332 -0.012342 -0.007924 -0.012413 -0.012151 -0.010768 0.003035 0.003603 0.000111 -0.019169 -0.017194 -0.012014 0.003434 0.015064 0.001515 -0.016882 -0.013697 -0.014323 0.017916 0.013979 0.018365 
0:2446 -0.013904 0.018921 -0.009793 0.003628 -0.009045 -0.003032 -0.004100 -0.005134 0.007196 0.009951 0.009328 0.002380 0.005251 0.012765 -0.008820 -0.018001 0.015694 0.008338 -0.008192 0.011178 0.000219 -0.013154 -0.008226 0.009045 0.013165 
0:78 0.009286 -0.018296 0.000679 -0.012252 -0.017441 -0.010996 -0.007449 -0.001564 0.017127 -0.018833 -0.005906 -0.009196 -0.014012 0.007485 -0.009068 0.015822 -0.006887 0.002302 -0.007227 -0.000903 -0.015680 -0.014037 0.019775 -0.000451 -0.003662 
2:10485 -0.014981 -0.010825 0.013618 0.006610 0.009526 0.008779 0.007299 -0.015142 -0.015108 -0.011924 -0.012395 -0.018379 0.003985 -0.017217 0.019122 0.010839 0.009206 0.013302 0.006732 -0.005011 -0.004865 -0.008785 0.015208 -0.008695 -0.003124 
2:8016 0.011739 0.006645 0.002920 -0.008815 -0.019574 0.002478 -0.013886 -0.012843 -0.005252 0.006045 0.002435 -0.002584 -0.005494 0.007326 -0.002359 -0.014709 0.003975 -0.015215 -0.002256 0.002508 -0.016034 0.007619 -0.006089 -0.016938 0.006172 
2:8040 -0.013436 0.012832 -0.005967 -0.003930 0.013167 -0.003470 -0.001629 -0.017401 -0.000267 0.018036 0.007179 0.018056 0.015595 0.001872 -0.013075 -0.013251 -0.001154 -0.006422 0.000063 -0.007758 0.008778 -0.000324 0.003179 0.019995 0.010323 
1:2796 0.009803 -0.009576 0.001816 -0.005577 0.006483 -0.003456 0.012934 -0.017092 -0.006005 0.011394 -0.009271 -0.009432 0.003431 -0.000539 0.012065 0.001805 -0.006577 0.008973 -0.010078 0.004976 0.018273 -0.008446 0.002927 0.007907 0.013198 
3:13031 -0.017019 0.011920 -0.007816 -0.004641 0.007241 -0.016518 0.019147 0.017454 0.013355 0.004552 0.018133 -0.008992 0.002246 0.005917 -0.005248 0.001684 -0.001258 -0.016328 0.005871 -0.002777 -0.009313 0.019637 -0.015817 0.017980 0.013787 
0:2581 0.018004 -0.006957 0.010236 -0.001201 0.001644 -0.017296 -0.013662 0.017737 -0.006645 -0.013483 -0.006429 -0.004637 0.019971 0.017269 -0.000887 0.003666 0.003806 0.015594 0.001505 -0.016169 0.001979 0.000190 -0.016998 -0.001262 -0.006568 
2:10730 -0.017899 0.010097 0.001515 -0.009347 0.003263 0.004757 -0.015675 0.004248 -0.005059 0.003851 -0.013595 0.011256 0.018901 0.019479 0.006782 0.002727 -0.012305 0.011431 -0.011976 0.019345 -0.017540 0.016647 0.002614 0.013921 -0.008395 
0:1633 0.000863 0.013772 0.003314 0.011211 0.008060 -0.016372 -0.008268 0.015411 -0.010184 -0.007251 -0.017193 0.009939 -0.000619 0.014082 -0.006348 0.013709 0.001714 -0.017620 -0.003236 0.006913 0.011416 0.014444 0.015143 -0.014732 0.013372 
0:1206 -0.012952 -0.014912 0.003996 -0.012584 0.007399 -0.004706 -0.006416 -0.012064 -0.000340 -0.010578 0.019384 -0.010783 0.010662 -0.000309 0.006514 0.002695 -0.017590 -0.013178 -0.001118 0.005217 0.016026 0.008636 -0.006757 0.007265 -0.002740 
1:6392 -0.010398 0.004013 0.019477 0.008865 -0.012263 -0.003525 0.009333 -0.012158 -0.019974 -0.000760 -0.008513 0.018577 0.016350 -0.001263 -0.001300 0.018696 -0.007353 -0.003558 0.013146 0.002546 0.002161 0.015469 0.001730 0.002236 -0.004617 
0:1231 0.011912 -0.006461 -0.019396 -0.016270 -0.001965 0.003906 0.010104 0.010287 0.006744 -0.002894 -0.008234 0.001742 -0.008672 -0.001084 -0.007887 0.009541 0.005605 -0.019844 -0.011623 0.011278 0.004624 -0.008215 0.005909 -0.011171 0.003140 
1:3782 0.009306 -0.019909 -0.012364 -0.013485 0.007099 0.016280 0.017651 -0.001703 -0.004737 -0.016712 0.002115 -0.009696 -0.008784 -0.016777 0.001189 -0.011577 -0.015305 -0.010429 0.001750 -0.006458 0.000195 -0.000673 -0.018595 0.015700 0.014728 
2:12081 0.006263 -0.006484 0.004785 0.011463 0.011309 0.015469 0.001111 -0.014709 -0.003116 -0.019574 -0.001701 -0.013419 -0.000838 -0.008452 -0.019629 0.004549 0.008787 -0.017125 -0.011419 -0.011528 -0.002020 -0.003454 0.006107 -0.018023 0.001046 
0:847 0.018696 0.005460 0.015202 0.007809 -0.011507 0.007675 0.007490 0.000241 0.019567 -0.013250 0.005460 -0.013434 0.003921 0.002278 -0.016351 -0.017714 0.018415 -0.006365 -0.015358 -0.000486 -0.018368 -0.010770 -0.017198 -0.011773 -0.006212 
0:1681 0.005578 -0.007464 0.000762 -0.005817 0.003653 -0.013833 0.003210 0.005464 -0.011608 0.005939 -0.017219 -0.003196 0.014671 -0.012144 0.001628 0.010429 0.010659 -0.013599 -0.013196 0.010253 0.002931 -0.009325 -0.004043 -0.012965 -0.015555 
1:6583 0.010389 0.001400 0.011246 -0.001616 0.009697 0.001178 -0.007867 -0.017897 0.007576 -0.004880 0.000655 -0.014413 -0.008229 0.012930 -0.008549 0.008628 -0.006313 0.001030 0.010830 -0.017357 0.017634 -0.011104 -0.013194 0.005735 0.002630 
0:918 -0.016261 -0.008839 0.002671 0.007961 -0.009159 0.004920 -0.013188 -0.010781 0.016942 0.014868 -0.017538 -0.008561 -0.006853 0.008568 -0.019982 0.016386 0.017780 -0.018282 -0.006364 -0.018001 -0.014033 0.014939 -0.004451 0.000818 -0.006043 
2:12062 -0.014604 -0.001079 0.015182 -0.006987 -0.006582 -0.004117 -0.004453 0.005297 -0.019338 -0.019946 0.012325 0.001751 -0.003453 0.013975 0.016525 -0.002234 -0.011939 0.016013 -0.013631 -0.001918 0.007811 0.005198 -0.012953 0.013802 -0.013894 
2:9309 0.000808 -0.010903 0.001907 0.004273 -0.019140 0.005264 0.007724 -0.016059 -0.013633 -0.010537 0.019443 -0.001361 0.013106 -0.006637 0.007107 -0.019888 -0.015015 -0.005804 0.019651 -0.005657 -0.003124 -0.018900 0.002890 -0.016768 0.017993 
0:1086 -0.016871 0.019564 -0.016040 -0.007723 -0.011146 -0.014186 -0.009889 -0.016270 -0.015752 -0.009746 -0.009992 0.018446 -0.011793 -0.015487 0.013507 -0.005427 0.008079 -0.010018 0.017873 0.008208 0.009545 -0.011413 -0.015131 0.015246 -0.000246 
2:7682 -0.017204 0.006191 0.013717 -0.016253 -0.012948 -0.016884 -0.014649 0.018369 0.019816 -0.005564 -0.019111 -0.017901 -0.011740 0.003217 -0.019699 0.015919 0.018807 -0.003583 0.013437 -0.003167 -0.007133 0.008754 -0.015249 0.011823 0.014524 
1:3536 -0.011814 0.018211 -0.005219 -0.000038 0.003253 0.006593 -0.012557 -0.003123 -0.004226 0.011837 -0.006044 0.007026 -0.004036 0.003493 0.002239 -0.008561 -0.017859 0.012111 -0.003583 -0.017877 -0.017311 -0.014801 0.000311 -0.011238 -0.015606 
0:1912 -0.001543 0.017573 0.009291 0.011505 -0.012512 -0.002268 -0.006274 0.006675 0.009813 0.012099 -0.010816 0.002827 -0.010805 -0.014013 -0.001540 -0.001576 0.005035 0.009353 0.006179 -0.015490 -0.006073 0.012910 0.003427 0.016784 0.009360 
0:784 0.012787 -0.004795 -0.019278 0.001015 0.007282 -0.009341 -0.003636 -0.019941 0.001825 -0.017842 0.009292 -0.010994 0.001862 0.011334 0.010380 0.001466 -0.001328 0.002565 -0.013863 -0.013513 -0.012677 -0.003617 0.006373 0.012385 0.007380 
2:7946 0.002933 -0.007054 0.003498 0.003901 -0.011303 -0.003862 -0.009217 0.009144 0.008358 0.008441 0.002348 0.013781 -0.010254 -0.013006 0.013171 0.001119 0.004356 -0.016784 -0.014439 0.001206 -0.009232 -0.011051 0.012919 -0.008605 -0.003020 
0:16 0.010223 -0.006383 -0.014893 0.008183 -0.019700 -0.014542 -0.010403 -0.003275 0.014319 0.012485 -0.007540 -0.004837 0.015215 0.001473 0.008965 -0.000994 0.011849 -0.015460 -0.018447 0.000292 0.012124 0.003779 0.007561 0.005398 -0.000184 
1:3927 -0.017922 -0.013750 -0.001477 -0.000147 0.007212 -0.012512 0.009552 0.001177 0.015712 0.001441 0.014878 -0.011137 -0.003731 -0.012247 -0.015490 0.016942 -0.019928 0.002225 -0.014162 -0.018414 -0.019181 -0.007613 0.014253 0.009044 0.010088 
2:9042 -0.013688 0.008735 -0.011688 0.002702 -0.010541 -0.011235 0.010671 -0.011558 -0.013479 -0.001535 -0.001251 -0.019071 0.007983 0.017857 0.004019 -0.003907 -0.008339 0.016993 -0.015703 0.011261 0.005697 -0.009146 -0.010100 -0.005022 -0.013062 
0:946 0.020000 0.005308 0.010651 0.011201 0.001633 -0.006884 0.001673 0.004313 -0.017831 -0.018282 0.015494 0.018767 -0.004674 0.002304 0.011770 0.006992 -0.004717 0.019604 0.003068 0.003409 0.018427 0.009456 0.005477 -0.000623 -0.001820 
0:2119 -0.011827 -0.014829 0.008730 -0.016520 0.018167 0.004456 -0.014549 0.016043 0.002907 -0.008607 0.004206 0.011244 -0.018480 -0.019482 -0.004309 0.018940 0.015765 -0.009438 -0.002355 0.012764 0.001038 -0.000766 -0.013973 -0.001911 0.003253 
1:4759 0.015598 0.010439 0.008991 0.010450 -0.007983 -0.002231 -0.016778 0.006879 -0.016353 -0.000368 0.012843 -0.008268 0.013972 0.005342 0.014950 -0.008085 0.004774 -0.000706 -0.002930 -0.009642 0.010017 -0.003183 -0.010324 0.014526 0.003276 
0:779 -0.014981 0.014483 0.004269 -0.002190 -0.008841 -0.018106 -0.011028 0.009171 -0.012939 -0.010206 -0.016900 -0.019612 0.019311 0.005087 0.010892 -0.002169 -0.015511 0.012906 -0.010200 0.018399 -0.006438 -0.019329 0.000685 0.010682 0.015056 
2:11603 0.019912 0.011817 -0.008350 -0.005335 0.018594 -0.013066 -0.008435 -0.016800 0.017655 0.017438 -0.013358 -0.011340 -0.003974 0.007844 0.013331 -0.015769 -0.000259 -0.004653 0.015390 -0.004728 0.005004 -0.013148 -0.000062 0.001151 -0.010575 
0:2639 -0.017838 0.003271 -0.016976 -0.013480 -0.014816 0.014299 0.001593 0.009478 0.003380 -0.002333 0.000022 -0.010212 0.009566 -0.012785 -0.018125 -0.001336 -0.016380 0.012872 0.017133 0.002600 -0.001205 0.016493 0.012855 0.014522 -0.006401 
0:1976 0.014822 -0.015093 -0.013915 0.012234 0.017642 -0.001561 -0.018094 0.012079 0.001056 -0.018813 -0.006171 -0.009044 0.002742 -0.015452 0.002957 0.019636 -0.002088 0.001879 -0.000278 0.003375 -0.008165 -0.007775 -0.016387 -0.001411 0.008254 
1:6030 -0.017107 0.003737 0.003834 0.010025 0.005835 -0.009584 -0.009288 -0.019345 0.011011 0.001990 -0.015226 -0.000332 0.018272 -0.006239 -0.011917 0.005915 0.018482 -0.000980 0.001261 0.012495 0.015690 -0.013510 0.004121 -0.000869 -0.016788 
1:5529 -0.019834 0.016314 0.013260 0.005319 0.006828 0.017003 0.007931 0.007215 0.016736 0.004184 0.013593 0.005151 0.009537 -0.015516 0.000988 -0.017670 0.007425 0.008466 -0.001361 0.006430 -0.019226 -0.003317 0.015857 -0.006741 0.007031 
2:10471 0.016923 0.015004 0.007600 -0.017113 0.000904 -0.016804 -0.013768 -0.003673 0.015997 0.005038 0.000234 -0.017788 0.001642 -0.015973 -0.010261 0.002363 0.005606 -0.006690 0.007746 0.002720 -0.005705 -0.011128 0.006227 -0.007490 0.019859 
0:262 0.003756 -0.002491 -0.012852 0.001236 -0.006106 -0.005956 0.002444 0.016066 -0.019174 0.014739 -0.012419 -0.010393 -0.002347 -0.012157 0.001736 -0.000376 0.000197 0.001400 0.018025 -0.000592 0.007107 -0.019067 -0.000737 0.004399 0.016584 
2:9622 -0.012785 -0.018598 -0.002745 0.012734 -0.005773 -0.007703 -0.018485 0.015152 -0.003604 0.013606 0.012978 0.014368 0.000199 0.004175 -0.012499 0.005025 0.009835 0.015288 0.017520 -0.008352 0.016800 -0.014681 -0.010900 -0.019475 -0.015709 
2:9779 -0.013475 -0.000983 0.007077 0.011752 0.008641 -0.000330 0.015564 0.004169 0.016023 -0.015723 0.011721 -0.019212 -0.002008 0.002764 0.008440 0.001059 0.018254 0.009753 0.000892 -0.014734 0.016456 -0.015658 -0.012043 0.014746 -0.004757 
1:6517 -0.004332 0.011048 -0.012249 0.004966 0.011929 0.017950 -0.007452 0.006353 0.007571 -0.008155 -0.000653 0.011349 0.008981 0.006758 0.013849 -0.010835 -0.014199 0.001557 -0.013598 -0.009314 -0.008269 -0.007282 -0.014828 0.013228 -0.000276 
0:753 0.016521 -0.018507 0.004891 0.019250 -0.018673 -0.011423 0.019166 -0.006551 0.011659 0.016894 -0.004907 -0.015328 0.011415 0.007398 0.008690 0.013448 0.014529 -0.015141 -0.000730 0.005190 -0.003005 0.004646 -0.009495 0.016224 0.019018 
1:3760 0.012788 0.012533 -0.008138 0.003215 -0.000050 -0.004861 -0.003324 0.009460 -0.007093 -0.015296 -0.009980 -0.012630 0.017154 0.014312 0.008810 -0.014393 0.007041 0.012628 0.009473 -0.006261 -0.005565 0.000888 0.014064 0.016723 0.016289 
0:914 -0.005636 -0.003492 -0.017047 -0.007225 -0.019578 0.005625 -0.019962 -0.013407 0.007138 -0.001405 -0.015193 0.017915 -0.007099 -0.010964 0.017498 -0.008549 -0.015783 0.015192 -0.008956 0.010200 -0.006637 0.001948 -0.012026 -0.018545 0.013511 
2:8621 0.002099 -0.005971 -0.014347 -0.006567 0.004980 -0.005256 0.002377 0.018912 -0.019949 0.002832 -0.002126 0.001476 0.006086 0.015254 -0.009682 0.003877 0.005189 -0.008740 0.006074 -0.004558 0.019926 0.015321 0.006461 -0.016741 -0.016537 
0:1704 0.003177 -0.006067 -0.016892 -0.018402 -0.010353 0.016317 0.008809 0.011563 -0.019517 -0.000176 0.010675 -0.007043 -0.011075 0.007243 -0.019739 0.014236 -0.019272 -0.006342 0.000303 -0.003619 -0.007931 0.009784 -0.019130 0.002458 -0.001081 
0:2193 -0.001897 0.007669 0.005624 -0.019263 -0.008737 -0.009455 -0.013150 -0.004187 0.004080 -0.006537 -0.012731 -0.010646 0.006048 0.017605 0.017516 -0.012163 -0.018004 0.016910 0.004680 0.012199 -0.000670 -0.003113 0.003523 0.002273 -0.012531 
1:6339 0.007495 0.012949 -0.019164 0.006445 0.018398 0.010628 0.017923 0.004209 -0.019287 0.002886 -0.009801 -0.016773 -0.017367 0.009229 -0.013157 -0.018358 0.013250 -0.012726 0.012444 0.013524 0.007736 0.000518 0.013508 0.017061 -0.010431 
0:385 -0.016014 0.003030 0.005015 0.005871 -0.009493 0.001580 -0.003467 0.015505 -0.013150 0.009287 0.010118 0.011596 -0.017969 -0.019394 0.007368 0.014348 -0.014287 0.007854 -0.000046 0.010724 0.008945 0.010884 0.003760 0.005690 -0.003088 
0:579 0.001232 0.007233 0.009584 -0.006987 0.000117 -0.003641 -0.003039 -0.000457 0.008328 0.003717 -0.002724 -0.012200 0.014255 -0.017882 0.011023 0.002410 0.010075 -0.013108 0.002553 0.000407 -0.011125 0.005474 0.008392 -0.002482 0.007222 
2:8412 0.010292 -0.000859 0.014553 0.010192 -0.014550 0.013744 -0.016726 0.002578 -0.019471 0.017322 -0.008911 -0.014674 -0.009106 -0.007554 -0.012855 0.017562 0.012057 0.003690 0.005881 -0.009643 -0.019397 -0.010728 0.018259 0.008884 -0.015907 
0:1118 -0.007828 0.001241 0.019796 -0.014167 0.013760 -0.011827 0.003976 -0.007618 0.002624 0.001124 -0.015926 -0.001378 -0.002005 0.004099 -0.010393 -0.014213 -0.012146 -0.000035 0.016372 0.012847 0.011635 0.016083 -0.015929 0.014452 0.001306 
1:4932 0.019689 0.004806 -0.001125 -0.015482 0.007605 0.014091 0.010686 -0.013783 -0.001859 -0.004184 0.006461 0.010627 -0.016550 -0.011896 -0.010517 -0.019165 -0.004890 0.016245 -0.011268 0.004917 0.002802 -0.001616 -0.008181 -0.005698 -0.003418 
1:5378 0.003079 0.014345 0.015275 -0.008792 0.012732 -0.015597 -0.000361 0.002637 0.002354 0.019480 -0.019619 -0.005668 0.012755 -0.016220 0.017525 -0.000972 -0.009271 -0.013745 0.012018 -0.003157 -0.012074 0.005655 0.004632 0.001269 0.011473 
2:7164 0.015105 0.014187 0.003295 0.009734 -0.017543 0.004311 0.014759 -0.018474 -0.009018 -0.010436 0.006422 -0.007597 0.007741 0.011093 -0.017221 0.006906 0.012210 0.003181 -0.018068 -0.005947 -0.017597 -0.014968 0.016989 -0.014152 0.018286 
2:8306 0.009912 0.018423 0.003983 0.012702 0.007906 0.019548 -0.019717 0.002943 -0.007539 -0.011699 0.018921 -0.014210 0.018665 0.009577 0.018447 -0.000159 -0.013041 -0.019215 -0.009714 -0.014791 -0.005074 -0.017837 0.019380 0.019700 0.016398 
2:10283 0.005156 -0.019404 -0.006202 0.011060 -0.000056 -0.008109 -0.010810 -0.016186 -0.001934 0.000921 0.015258 0.003196 -0.010976 -0.008467 -0.017965 -0.004030 -0.009200 0.008480 0.017855 -0.001571 -0.011255 0.018043 -0.001115 -0.009687 0.001561 
2:11396 -0.018583 0.002922 0.011607 -0.007564 -0.008084 0.013076 0.005429 -0.010031 -0.002497 0.008029 -0.014829 -0.006669 -0.004275 0.008950 0.006797 -0.017001 -0.016129 0.000174 -0.013770 -0.014686 0.008100 -0.004114 -0.013110 0.000825 -0.014775 
1:4602 0.009912 0.003731 -0.005366 0.003902 -0.010461 -0.007336 0.001956 -0.012745 -0.005371 -0.009981 0.014415 -0.015443 -0.006009 -0.008119 0.010218 -0.013167 0.002242 -0.019610 0.013354 0.008618 -0.006647 0.011619 0.004857 -0.000923 -0.005421 
1:5711 0.013330 -0.014233 -0.017472 0.014541 -0.001888 0.016348 -0.005358 0.019856 -0.019027 0.012314 -0.000536 -0.005561 -0.009455 -0.007949 -0.002274 -0.005090 -0.013434 0.019042 -0.004499 -0.008807 0.009783 -0.002723 0.004912 0.008402 -0.015185 
2:9950 0.017015 -0.006639 0.000598 -0.017114 0.003934 -0.009155 0.008651 0.016848 0.001150 -0.012340 0.018014 0.005063 -0.010304 -0.005708 0.001748 -0.005086 0.008646 0.019468 0.003299 -0.004328 -0.001883 0.012703 -0.003435 -0.004648 0.008500 
2:9848 0.014931 -0.001786 0.018903 -0.018287 0.000698 -0.005441 0.010928 0.016426 0.001690 -0.000187 0.017515 -0.015056 -0.006698 0.016968 0.001110 0.004663 0.006731 0.013296 -0.016846 0.007016 0.006915 0.012290 -0.014458 -0.010241 -0.010365 
3:12772 0.013242 0.017584 -0.005822 -0.010794 -0.003295 -0.016718 0.006207 -0.016943 0.018628 0.009752 0.006106 0.003099 0.006571 0.019895 -0.008943 -0.000859 0.006306 -0.005610 -0.009110 0.006465 -0.005213 0.004129 -0.015151 -0.010446 -0.005760 
0:1322 0.019177 0.016632 0.003622 -0.010594 0.009118 -0.014856 -0.009757 0.006326 -0.015469 0.005328 -0.001963 0.014852 0.019262 0.001507 0.003623 0.013578 0.012265 0.012340 0.000433 0.018271 0.016912 0.009196 -0.010580 -0.010127 -0.017901 
0:1842 0.009752 0.003121 -0.015012 0.013946 -0.001661 0.012997 0.012834 0.008505 -0.017254 0.001000 -0.008656 -0.004100 0.016044 -0.018485 -0.015933 0.004299 -0.015357 -0.004825 0.002877 -0.009608 0.018750 -0.015485 -0.010845 0.008348 0.017889 
0:691 0.016135 0.001321 0.018012 0.019231 -0.017460 -0.006302 0.016918 -0.016289 0.009639 -0.008259 0.010880 -0.017233 0.004843 -0.006344 -0.000859 -0.014944 0.004789 0.013409 0.012151 -0.001040 -0.009523 0.010619 0.008970 0.008685 -0.002547 
0:1032 0.019344 0.012946 -0.003119 0.014725 -0.004054 -0.017853 0.018174 -0.006459 -0.018734 -0.010488 -0.008370 0.000003 0.008800 0.005990 -0.015390 0.015909 -0.000309 0.000806 0.019071 0.004702 0.017686 -0.014120 -0.014723 0.003133 0.009130 
1:4951 0.006675 -0.001875 0.012587 0.016833 0.019244 0.016193 0.019066 -0.015167 0.018744 -0.013962 0.011579 -0.001888 -0.002314 -0.014458 -0.006193 -0.013338 0.010249 0.008485 -0.009377 0.013112 -0.006954 -0.006613 0.015382 -0.019142 0.017748 
2:11519 -0.000110 0.018830 -0.014841 0.000466 -0.003565 0.007742 -0.000638 0.019777 0.010465 -0.013520 0.018461 -0.007626 -0.017504 0.001498 -0.019123 0.004680 -0.015015 -0.005191 0.010176 0.018368 0.017584 0.011552 -0.011767 -0.006916 -0.005963 
2:8419 -0.013441 0.014348 0.014137 0.007460 0.010173 -0.005555 0.019689 -0.011307 -0.002337 -0.016882 -0.015392 -0.005629 -0.011001 -0.009835 -0.007888 0.000934 -0.010475 -0.003905 0.016591 0.016349 0.014486 -0.008801 -0.005623 0.003658 0.013420 
2:11335 0.013200 0.017143 -0.000336 0.008585 0.007885 -0.004137 0.014630 0.009002 0.014767 -0.009685 0.003300 -0.001100 0.015678 0.008306 -0.017754 0.007721 0.008503 -0.001762 0.011515 0.018378 -0.010499 -0.002271 -0.016661 0.015604 -0.007009 
0:2102 0.015558 0.009878 -0.007089 -0.014568 -0.011636 0.005692 0.011911 0.006129 -0.001964 -0.001674 -0.002192 -0.016277 0.011476 -0.011743 0.014726 0.013845 -0.009213 0.016366 0.016578 -0.010946 -0.010685 -0.015730 -0.006595 -0.013688 0.013760 
0:1045 -0.016920 0.015841 -0.000972 0.006709 0.011500 0.003021 0.018855 0.002141 -0.010678 -0.019989 -0.000299 -0.000957 -0.019587 0.017563 -0.019198 -0.005618 -0.015945 0.000954 -0.004138 0.001539 -0.008519 0.015844 0.004881 -0.000118 0.012439 
2:11974 0.005988 0.009676 0.011525 -0.008201 -0.012165 0.011002 -0.008694 -0.001537 -0.012327 -0.004981 0.013320 0.006270 0.012832 0.002619 0.011057 0.013328 -0.004457 -0.009134 0.000988 -0.007883 0.003937 0.018617 0.017403 0.012327 -0.010720 
0:412 -0.010078 -0.013614 -0.004136 -0.001793 -0.011214 -0.008683 0.011949 0.012723 -0.014826 0.016921 0.002616 -0.018362 -0.015623 -0.002707 0.012224 -0.014704 -0.004997 0.011557 -0.012378 0.019254 0.002678 0.006219 0.001379 -0.012233 0.007271 
1:2859 0.005179 -0.010131 0.004681 -0.019858 -0.003520 0.017766 0.001232 0.001054 -0.010628 0.002843 0.017575 -0.019481 0.006499 0.012817 -0.008880 0.018258 0.009244 0.012214 -0.018064 0.016981 -0.008593 0.011165 -0.008657 0.003141 0.015901 
0:369 -0.010835 -0.016391 0.014634 -0.006602 -0.002518 0.007318 -0.019886 -0.009974 -0.011844 0.014842 0.003994 0.019227 -0.018243 -0.010139 0.011318 0.007563 -0.003729 0.004523 -0.018709 0.008498 0.016006 0.008401 0.018273 -0.005214 0.008199 
2:10460 0.008025 0.014055 -0.018512 -0.001056 0.000049 0.001863 0.018799 -0.011464 0.009254 -0.009616 0.009884 -0.009008 0.010425 -0.005103 0.009740 -0.006867 -0.003000 0.008467 0.012302 0.011453 -0.017992 -0.016894 -0.015098 0.010039 0.014740 
1:6315 -0.007325 -0.017181 0.005517 0.006587 -0.005123 0.008394 -0.000845 -0.014737 -0.009915 -0.014271 -0.012225 -0.016254 0.009133 0.002047 -0.002036 0.019901 0.002493 0.019488 0.014380 0.010506 0.019143 -0.008317 -0.015149 0.000203 -0.014530 
0:2608 -0.006849 0.006639 -0.000351 0.019268 0.007989 -0.011102 -0.003353 -0.014469 -0.004994 0.004129 -0.005887 0.010822 -0.016212 -0.009533 -0.001314 0.001911 0.001984 -0.007623 0.001245 -0.000778 0.004951 -0.000715 0.002033 -0.019524 -0.014889 
2:7339 -0.010743 0.001288 0.011072 0.011957 -0.019834 0.018222 -0.004241 0.008078 -0.002418 0.014101 -0.012839 -0.001208 0.004680 -0.002985 0.000763 0.015544 -0.012925 0.015360 -0.005145 -0.008139 -0.009116 0.008580 0.013295 -0.012442 0.001962 
2:11280 -0.017034 0.001959 0.000070 -0.003221 0.000327 0.002137 0.002429 0.007841 -0.009386 -0.016949 -0.001137 -0.010928 -0.019974 0.014493 0.005108 0.017463 -0.005450 0.003178 0.000261 -0.019138 0.019746 0.000955 -0.016890 -0.010913 -0.010437 
2:9720 0.005323 -0.012120 -0.000555 -0.014898 0.001748 -0.002928 -0.019377 -0.002087 0.017630 -0.014747 -0.001813 -0.010556 0.001783 0.014566 0.008294 0.007698 0.009838 0.012342 -0.002383 -0.007931 -0.003414 -0.004631 0.006104 0.014928 0.006417 
2:9275 -0.011054 -0.013906 -0.010052 0.016475 0.007771 0.012312 -0.013554 0.014296 0.015723 -0.010083 0.013621 -0.010582 0.008130 0.005120 0.010246 0.016378 0.002185 0.011605 0.003587 0.016778 0.013686 -0.013036 -0.014886 0.001860 0.018545 
1:5325 0.006045 -0.003695 -0.004655 0.007987 -0.006941 0.006540 -0.017932 -0.009522 0.012968 -0.017469 -0.000756 0.003404 0.012782 0.018272 0.002634 -0.003509 0.005278 0.009433 -0.007721 -0.002294 -0.012328 -0.013389 0.007742 0.010356 -0.018964 
1:5584 0.000427 -0.017933 -0.017260 0.014836 0.004206 -0.018617 0.015382 -0.000561 -0.011388 -0.005183 -0.015391 0.001847 -0.010476 0.005659 0.011072 -0.005396 0.002048 -0.004477 -0.000450 0.006122 -0.001012 0.000401 0.003094 -0.019224 0.004703 
0:1456 0.018859 -0.015483 0.013931 0.009177 -0.004323 0.011861 -0.013271 -0.002762 -0.011816 -0.001781 0.012542 -0.004792 0.006795 -0.005303 0.008693 -0.003781 0.009144 0.012390 0.013873 -0.018014 -0.011388 -0.010873 -0.015506 0.001560 0.014943 
2:9508 -0.008798 -0.003099 0.009142 -0.000953 0.013004 0.018431 -0.008742 -0.005708 -0.008967 0.003452 -0.005498 -0.013401 -0.018194 -0.010195 0.004669 0.012461 0.016079 -0.002087 -0.009866 0.016135 -0.003582 -0.015346 -0.013373 -0.019331 0.002598 
0:1668 0.001844 0.004989 0.014347 -0.012728 0.016122 0.014458 0.000811 0.009408 0.006115 -0.017154 -0.010219 0.015178 0.005249 -0.005391 -0.002131 -0.002397 0.005920 0.015696 0.005779 0.011436 -0.012912 0.016287 0.009983 0.001601 0.009928 
0:652 0.008771 0.008247 -0.011435 -0.006921 0.005216 -0.015475 0.008685 0.004493 0.002813 0.008237 0.006957 -0.000235 -0.019213 0.006578 -0.001089 0.003051 -0.008614 0.012780 0.007227 0.010604 0.001965 -0.019254 0.009351 -0.019364 -0.010479 
1:6130 -0.015469 0.002668 0.011670 -0.006412 -0.008884 0.014779 0.005900 -0.005851 -0.007994 -0.004235 0.013966 0.001039 -0.007649 0.001856 -0.017605 -0.012630 -0.017356 -0.003045 0.005634 -0.012672 -0.013799 0.001930 0.011538 0.009071 0.007412 
1:6845 -0.001141 0.018349 -0.005056 -0.009841 0.000055 -0.014697 -0.010538 0.006256 -0.012735 -0.009494 -0.012205 0.000242 0.014945 0.008901 0.019617 0.012517 -0.005435 0.015164 -0.010921 -0.012892 0.005205 0.008990 -0.013451 0.016953 -0.001572 
1:4065 0.003702 -0.013539 -0.012532 -0.005208 -0.014087 -0.000916 -0.000387 0.000919 -0.015497 -0.011950 0.004472 0.004709 -0.005911 0.003545 -0.019979 -0.012285 0.018117 0.006075 0.010382 -0.002379 -0.011119 0.013037 0.014893 -0.009605 -0.000844 
1:6638 0.017773 0.000252 -0.014152 0.002794 0.007821 0.018061 -0.007893 -0.002795 -0.009365 -0.014483 0.000072 -0.015862 0.018922 0.001751 -0.006548 0.006511 0.008951 0.011345 0.016524 0.013793 0.000987 -0.013941 0.016388 0.018625 -0.018347 
1:3017 -0.001963 0.014981 0.018566 -0.000435 -0.010827 -0.009553 -0.000295 -0.007418 -0.008204 0.015834 0.005832 -0.004906 0.014207 -0.009593 0.003240 0.006095 -0.013170 0.007505 0.009511 -0.014621 0.002117 -0.001814 -0.004031 -0.013174 0.000527 
1:2914 -0.006546 0.009582 -0.007544 -0.011262 0.004252 -0.007919 -0.007553 -0.010575 -0.012750 0.009050 0.015817 -0.019391 -0.009867 0.005060 -0.015912 0.012014 -0.017240 -0.018750 -0.006742 0.008012 -0.012369 0.017552 -0.015952 0.018743 -0.002955 
2:12379 0.013907 -0.018427 -0.016140 0.002025 0.010361 -0.008241 -0.010975 0.000916 -0.019727 -0.002741 -0.009048 -0.013095 0.003765 0.015406 0.012593 0.011568 -0.006261 0.004754 0.008675 -0.007247 0.011465 0.016678 0.005358 0.007309 -0.000895 
0:1622 -0.002619 0.007927 -0.004553 -0.005710 0.005119 -0.007405 -0.002121 0.006122 -0.006937 -0.014654 0.017462 0.015096 0.003007 0.016398 0.007850 0.002004 0.006521 -0.011689 0.008583 0.010081 -0.000197 0.004066 0.001246 0.009959 -0.010344 
0:2127 -0.019871 -0.012293 -0.014957 -0.014429 0.003496 -0.011726 -0.008487 -0.005743 -0.014007 0.015087 0.007395 -0.001279 0.007820 0.010603 -0.002105 0.018676 0.013009 0.009735 0.003881 0.001124 0.000677 -0.009061 0.019430 0.019601 -0.005207 
1:4360 -0.006202 -0.019597 -0.010981 -0.017509 -0.013204 0.019501 0.008388 0.000693 0.010739 0.003739 -0.010586 -0.000721 0.006260 -0.003095 0.013469 -0.003752 -0.001276 0.019563 -0.001149 -0.008879 0.009049 0.008230 0.013591 -0.019607 0.013142 
2:8855 0.003939 0.002275 -0.010416 -0.018250 -0.004708 0.007039 -0.002432 0.014815 0.010725 -0.011537 -0.017930 -0.010533 0.012006 -0.013437 0.019962 -0.017062 0.016047 0.004406 0.005174 0.006431 -0.005711 0.015264 0.015622 -0.006383 -0.016924 
0:2057 0.013330 -0.015150 0.004707 0.014155 -0.008619 0.004137 -0.013857 -0.016741 -0.019240 -0.014598 -0.009305 0.017621 0.003498 -0.001091 0.000141 0.006397 0.001512 -0.012027 -0.004604 -0.000498 0.010178 0.008668 -0.017231 0.015205 0.007784 
0:542 -0.010644 0.010281 0.001930 -0.012077 -0.004840 0.005193 0.000299 -0.013177 -0.011225 -0.017936 0.007222 0.003003 -0.002264 0.005161 0.008195 -0.009907 0.009511 0.015929 -0.004571 0.000175 0.018363 0.012500 -0.013003 -0.013295 0.006902 
0:2188 0.007019 -0.001884 0.008612 0.008459 -0.013208 -0.009940 -0.003577 -0.003043 -0.019953 -0.011526 0.001771 0.008510 0.012419 -0.015874 -0.019236 -0.002681 -0.019898 -0.014640 -0.018964 -0.012030 0.005770 0.011109 0.000503 0.013499 0.015515 
2:8699 -0.000682 0.014526 -0.003768 -0.014046 -0.000784 -0.004862 -0.002551 0.001722 -0.011567 0.000421 -0.015985 0.003891 -0.003670 -0.018472 -0.008803 -0.000275 0.017055 -0.001162 0.016384 0.011619 -0.005885 0.007285 -0.019827 0.007532 0.017064 
2:7389 -0.000723 0.016666 0.017794 0.006130 0.003946 0.016510 -0.007752 0.019545 -0.006051 0.018985 -0.010163 0.004641 0.002113 -0.017546 0.000419 -0.004611 -0.015485 0.007486 0.003051 -0.000571 0.001042 -0.001281 0.008376 -0.005528 -0.005827 
2:9660 -0.007802 0.007985 -0.006707 0.008601 0.003272 -0.012174 0.017655 0.018010 -0.010581 0.011318 -0.000654 0.009028 -0.001082 0.016944 -0.008116 -0.004423 0.009345 0.017574 -0.017028 -0.015049 0.017177 0.002274 0.011846 -0.003360 0.011417 
2:8890 0.008483 0.018135 -0.009134 -0.000648 0.016698 -0.017543 -0.002437 0.011748 -0.003410 -0.004737 0.008009 0.003117 -0.001913 -0.008611 -0.017485 -0.012712 -0.006674 -0.016638 0.017675 0.000117 -0.009880 -0.004314 0.018446 -0.017682 0.005263 
0:1513 -0.012698 0.010721 0.019282 -0.014927 -0.016006 -0.001627 -0.008953 -0.011919 -0.016797 -0.010631 0.019722 0.015633 -0.007461 -0.002648 -0.009841 0.008522 0.001514 -0.004047 -0.004647 -0.009118 0.003050 0.001824 0.013278 -0.015489 -0.011087 
0:729 0.004873 0.010803 0.018810 -0.004812 0.018149 0.016220 -0.003190 -0.016726 -0.000496 0.017047 0.007121 0.012774 -0.011949 -0.001010 0.009847 -0.004522 -0.008162 0.017062 0.017353 0.015457 0.016320 0.013957 0.016696 0.016843 0.016887 
2:9682 -0.018365 0.004774 0.010514 -0.001379 0.004687 -0.008645 0.014210 0.017278 0.011596 0.019392 -0.017878 -0.006061 0.001875 0.001857 0.001202 0.009200 0.015310 -0.004261 -0.001079 0.019339 0.015071 0.014971 0.000480 -0.017206 0.010374 
0:378 -0.003441 -0.007991 0.010355 0.017030 -0.015840 -0.003405 0.006806 0.016159 0.000785 -0.016530 -0.013117 -0.005576 0.017219 0.014367 0.010922 0.004066 0.008589 -0.008687 0.010208 0.002743 0.013934 -0.009596 0.006573 -0.007931 0.010875 
0:2310 0.007839 -0.007237 -0.001120 0.011967 -0.001524 -0.001643 0.019239 0.011115 0.010118 -0.019902 -0.014016 -0.018155 -0.011922 -0.006517 -0.005044 -0.007059 0.006388 0.000240 -0.002386 0.016319 0.016066 -0.005088 0.019806 -0.014071 -0.013550 
2:10545 0.006957 0.012654 -0.010041 0.003722 -0.013565 0.008426 0.014833 -0.004809 0.009226 -0.015355 0.000309 0.003384 -0.016342 -0.003577 -0.010505 -0.003102 0.005148 -0.011919 0.016538 -0.008592 -0.008343 -0.009660 -0.013416 0.017722 -0.003209 
2:11682 0.005506 -0.001897 -0.019698 0.013505 0.011932 -0.011093 0.013252 0.010455 -0.003492 -0.006612 -0.019496 0.003843 0.005349 -0.000513 0.001168 0.000444 -0.009226 -0.017083 -0.006205 -0.000480 0.007620 -0.002633 0.011687 0.013928 0.009420 
2:9855 -0.006115 0.009067 0.014225 -0.000046 0.011535 -0.015103 -0.018693 -0.018406 0.003086 -0.017371 0.005228 0.005249 -0.019141 -0.008245 0.017589 0.009432 -0.008334 -0.010326 0.009892 -0.005975 -0.016261 0.001523 0.007548 0.016285 -0.012514 
0:53 -0.012615 0.014721 -0.007302 -0.001442 0.010641 0.009809 0.010215 0.014631 0.017838 -0.000538 0.004918 -0.014769 -0.006817 -0.017918 -0.019432 0.011502 -0.012804 0.003603 -0.003913 0.017531 0.010645 0.010741 0.009678 0.018498 -0.018506 
1:6479 0.004364 0.002620 0.014233 0.002682 -0.012391 -0.019232 0.019981 -0.012307 0.004692 0.011606 0.013046 0.019051 -0.007856 0.014183 -0.010139 0.016663 0.019918 0.015307 -0.012332 0.001507 0.016232 0.006494 0.016180 -0.004512 0.004363 
0:1984 0.005086 -0.014032 0.003367 0.019001 0.004539 -0.016672 -0.007434 -0.004114 0.014119 0.006081 0.019730 0.011849 -0.017334 0.001560 0.002258 0.001892 -0.012255 0.007587 -0.019974 -0.009840 0.000156 0.006177 0.014175 0.016954 0.010084 
2:9992 0.009229 -0.000290 -0.012955 0.005830 0.006763 0.004267 -0.008975 0.004039 0.003953 0.002307 0.014699 -0.019591 0.018432 -0.003310 -0.001563 -0.010895 0.013116 -0.000700 -0.018133 0.008967 0.017733 0.007027 -0.000339 0.000100 0.011421 
0:842 -0.006865 -0.009133 -0.017202 0.015761 0.012824 -0.014707 0.008665 0.012186 -0.012495 -0.000156 0.000003 -0.001185 -0.007069 0.000761 0.008772 -0.000286 -0.008695 0.008087 0.014895 -0.007889 -0.001803 0.007241 0.005531 -0.003876 0.013884 
2:9228 0.009618 0.008636 -0.004963 -0.007411 0.015655 0.018107 0.018466 0.010034 -0.013875 -0.018154 0.013696 -0.007112 -0.004983 -0.016584 0.004653 0.009263 -0.009610 -0.015458 0.005660 -0.002512 0.006357 -0.011893 0.005713 0.006025 -0.002504 
0:2538 -0.011911 -0.001941 0.001989 0.015989 -0.013182 0.009571 0.000487 -0.009705 0.011218 0.012813 -0.017506 0.000651 0.013377 -0.014409 -0.001946 -0.018379 -0.012319 -0.005536 -0.009055 0.016075 0.002938 -0.003983 0.006210 -0.002948 -0.010151 
1:5860 0.016837 -0.002671 -0.009734 -0.009447 0.018737 0.004377 -0.011722 -0.006894 -0.007991 0.007894 -0.015524 -0.016476 0.007020 -0.015694 0.008793 0.007429 -0.010578 -0.005838 0.005277 0.009732 0.007078 0.000277 0.000424 0.006519 -0.006960 
0:1384 0.007390 -0.011113 0.000885 0.015383 0.003476 0.016167 -0.009427 -0.012760 -0.003240 -0.012637 -0.006232 -0.002975 -0.006061 0.005166 0.018105 -0.004226 0.019340 0.015887 0.002184 -0.008718 -0.012656 -0.005833 0.002101 0.004649 -0.000851 
0:2401 0.006125 -0.006960 0.000556 -0.004446 -0.004009 -0.019982 -0.019808 0.002876 -0.016986 0.008647 0.008326 0.015745 0.007584 -0.004002 -0.018706 0.007717 -0.005489 -0.018032 -0.019543 -0.018546 -0.014946 0.014204 -0.017821 0.003879 0.010376 
0:1330 -0.009709 -0.013089 0.002721 -0.000709 0.002990 0.016458 0.000725 0.002530 -0.000742 -0.003057 -0.019708 -0.015867 0.017153 0.009367 0.012881 -0.000557 -0.007818 -0.004588 0.018535 -0.002256 0.014709 -0.002171 0.004472 0.005262 0.010085 
1:6537 0.001298 -0.009540 0.004745 -0.002592 -0.006163 -0.012074 -0.000402 0.008156 -0.002966 0.004622 0.004721 0.003931 0.017703 0.000572 0.010698 -0.012658 -0.006921 0.000641 -0.009140 0.004035 0.018809 -0.009155 -0.012541 -0.008041 0.018254 
1:5514 -0.016494 -0.019032 0.016003 0.009844 -0.018890 -0.007388 -0.001929 -0.011001 -0.003923 0.013992 0.005788 0.010841 -0.009409 -0.007604 0.009144 -0.010280 -0.018968 -0.009721 0.009039 0.011536 0.004857 -0.001730 0.003424 -0.006162 -0.019968 
0:573 -0.009580 -0.005382 0.007764 0.004862 -0.013514 -0.015268 0.012238 0.016788 0.005251 -0.007969 0.007688 0.002854 0.004973 -0.000030 -0.009224 -0.001881 -0.014809 -0.014853 0.002416 0.018868 -0.004614 0.008768 0.003902 0.004863 -0.015122 
0:2186 0.015095 -0.009137 0.013764 -0.000101 0.000633 -0.012573 -0.012014 -0.011151 -0.012228 -0.011639 0.014134 -0.016790 0.003963 0.017477 0.004167 0.003589 0.011804 0.000204 0.009711 0.015156 0.007858 0.019074 -0.018950 -0.007648 0.011396 
0:289 0.007445 0.003242 -0.014413 0.011594 -0.003598 0.019651 0.015639 -0.016186 -0.013198 -0.017544 0.007858 -0.019693 -0.017403 -0.001042 0.009106 -0.007342 0.017079 0.014685 -0.005787 -0.002034 0.019146 -0.006466 -0.000954 0.007454 -0.016891 
0:211 -0.016250 -0.000532 -0.007529 -0.000982 -0.002133 0.008868 0.018381 -0.019953 0.006011 -0.002567 0.018383 0.000475 -0.011529 0.018879 0.010917 -0.015484 0.006702 -0.006880 0.017812 -0.001630 -0.014436 -0.002564 0.006672 0.000067 0.012663 
1:5235 -0.015549 -0.018856 -0.004306 0.007822 0.015793 0.012620 0.008285 -0.004328 -0.003453 -0.009575 0.001356 0.006212 -0.018300 0.002638 -0.007638 0.013682 0.001315 -0.003867 -0.014860 -0.004668 0.006221 0.011574 -0.011953 -0.000942 -0.001702 
2:9596 -0.005536 -0.018642 0.014199 0.000053 0.003195 -0.010288 -0.007938 0.000771 -0.013151 -0.009070 -0.010371 0.008817 0.015016 0.003085 0.009870 0.009977 0.017180 -0.019955 -0.004751 0.005936 0.004917 -0.015357 0.019550 0.000953 0.018624 
0:2259 0.003068 -0.006007 0.008703 0.004972 0.017083 -0.015993 -0.004170 0.001769 0.014444 0.017854 -0.017602 -0.015634 0.004801 -0.019593 -0.017886 0.004240 0.003757 0.011958 0.014196 -0.010011 -0.000322 -0.015279 0.006844 -0.012401 0.009727 
2:10689 0.003728 0.017810 -0.006512 -0.006048 -0.000262 0.009130 -0.019467 -0.004783 0.010496 -0.010590 0.011194 -0.009147 0.003813 0.005093 0.012781 -0.010929 0.005830 -0.016382 0.008191 0.014761 -0.012737 -0.009707 0.016423 0.013530 0.012471 
3:12645 0.006662 0.009343 -0.012508 -0.011346 -0.013533 -0.002462 -0.010283 -0.001219 -0.003732 -0.017752 0.008976 -0.002155 -0.006065 0.000028 -0.018247 -0.014446 0.006525 0.017619 -0.001778 0.010887 0.002094 0.006917 0.011395 0.017593 0.010040 
0:935 -0.008449 -0.007872 0.019568 -0.015676 0.013781 -0.013537 0.013393 -0.006483 -0.008966 -0.006883 0.010407 0.007483 -0.017112 -0.008204 -0.015370 0.011528 0.017083 0.015320 0.011871 0.010106 0.009799 0.000408 0.005290 -0.010083 -0.005010 
1:6561 0.011031 0.008531 -0.007230 -0.000975 0.003733 -0.012497 -0.008420 0.003298 0.013699 -0.001220 0.010916 -0.013514 0.016352 -0.017555 -0.017060 0.017593 -0.012656 -0.000428 -0.016456 -0.014357 0.010313 0.012117 0.009701 0.018041 -0.018616 
1:4424 -0.008465 0.000146 -0.013698 0.003841 -0.015384 -0.006242 0.006527 0.002055 0.015772 0.019295 -0.003903 -0.009381 0.001986 0.019019 0.011600 0.001033 0.018364 0.014680 -0.004426 0.006344 -0.001586 0.000874 0.008092 0.014436 0.006927 
1:4764 -0.006814 0.016902 0.010082 0.002945 -0.001532 -0.002182 0.007603 -0.009205 -0.017370 -0.007490 0.012529 -0.018578 0.004763 0.013653 0.005831 0.000728 0.012393 -0.008941 -0.009209 0.009446 0.004870 -0.004621 -0.014230 -0.007289 -0.014636 
2:10180 -0.012410 -0.019460 -0.016875 -0.003945 0.007893 0.004097 0.018386 -0.000543 -0.005516 0.002250 0.017798 0.000910 0.013571 0.016812 0.013862 0.001658 0.015933 0.010884 0.013752 0.008386 0.004246 -0.017479 -0.003726 -0.009890 0.012259 
0:1192 0.019375 0.012909 0.005181 -0.004191 0.003092 0.012115 0.005766 -0.006830 0.005890 0.019393 0.002081 -0.007536 0.010064 -0.007499 -0.013444 0.013974 0.004752 -0.005079 0.013188 0.002663 -0.005520 0.015786 0.007898 -0.019635 0.013377 
1:5218 -0.019857 0.009557 -0.019959 -0.013333 0.004903 -0.013756 0.002437 0.005986 0.011855 -0.002845 -0.007162 0.004806 0.008421 -0.009924 0.015327 0.017626 -0.002459 -0.000860 -0.012671 -0.019146 0.016527 0.005719 -0.007646 -0.009566 0.002154 
1:5339 0.013096 -0.001357 -0.016573 -0.010439 -0.000175 0.013004 0.011638 -0.010088 0.010992 0.015637 0.018302 -0.015248 -0.001081 -0.003702 -0.004970 -0.017898 -0.013293 0.013802 -0.012454 -0.012093 -0.008134 -0.000112 -0.012040 -0.015962 0.001679 
1:4029 -0.006741 0.001977 -0.000594 0.015763 -0.005373 0.017011 0.007074 -0.005236 -0.011024 -0.017978 -0.012691 0.017714 0.010923 0.004256 -0.015855 0.003406 0.016418 0.004594 0.003080 0.016688 -0.001781 -0.002691 -0.004555 0.016650 -0.019136 
1:2956 -0.012472 0.004278 -0.007260 0.005225 -0.004456 0.016053 -0.007349 0.000617 0.009693 0.016616 0.017757 0.010037 -0.018396 -0.007842 0.015894 0.009128 0.004737 -0.017257 0.003417 0.018385 0.007173 -0.003540 -0.017969 -0.011068 0.003648 
1:4808 -0.002540 -0.018737 0.017660 0.012243 0.007433 0.013772 0.011618 -0.002395 -0.004316 0.007244 0.011349 -0.016197 0.011064 -0.009518 0.004891 0.018765 -0.013375 0.009109 -0.004786 0.009413 -0.011902 -0.013617 -0.015859 -0.000474 -0.013958 
1:2721 0.018345 0.007945 -0.017227 0.014764 0.019167 -0.019661 0.019639 0.010649 -0.016905 0.008102 -0.012961 0.009562 0.013589 -0.014184 0.006403 -0.014702 -0.015837 -0.007819 0.003105 -0.013152 0.018375 -0.016514 -0.010380 0.013603 0.010948 
1:6327 0.016757 -0.016013 -0.000215 -0.008945 -0.017693 0.000320 0.003677 -0.015344 -0.006354 -0.001076 0.012455 0.010446 -0.019965 0.008848 -0.005669 0.018232 -0.002147 0.002043 0.005283 0.007352 0.004906 -0.016513 0.001692 0.009032 -0.004930 
0:218 0.010595 -0.007870 -0.019542 0.008004 0.000257 0.019065 0.000284 -0.010208 0.003189 -0.012913 -0.008648 0.002619 -0.016006 0.011243 -0.006337 -0.001522 -0.002070 -0.002804 -0.009891 -0.018476 0.006295 0.013623 0.009672 0.015650 0.019926 
0:2645 0.007963 -0.003420 -0.002190 -0.012646 0.014821 0.018446 0.018105 0.000684 -0.010780 0.009948 -0.019265 -0.017550 -0.011394 -0.010768 -0.008944 0.014561 -0.005447 -0.003277 -0.011235 0.004336 0.004732 -0.008407 0.015333 -0.000372 -0.011556 
2:11308 -0.015154 0.002046 -0.018226 -0.012956 -0.010875 -0.010109 -0.015836 -0.005049 -0.015136 -0.008263 0.014949 -0.008903 0.013412 0.014439 0.012385 0.019854 0.005533 0.016506 0.016228 0.003426 -0.012156 -0.000495 -0.012098 -0.013916 0.004919 
0:1363 0.007431 0.009459 -0.009276 0.018558 -0.001006 0.003442 0.008562 0.002897 0.015198 0.014981 -0.004172 0.006143 0.011014 0.015549 -0.017545 -0.014093 0.007352 0.011358 0.015386 0.011256 -0.006627 -0.006100 -0.009904 0.002170 -0.007033 
0:612 -0.004647 0.005468 0.018696 -0.017263 -0.001703 0.014613 -0.011322 0.007923 0.005980 0.017311 -0.005496 -0.000525 0.002544 0.014398 -0.010839 -0.009665 -0.006107 -0.007390 0.010950 0.015618 0.012077 0.005760 -0.002565 -0.015723 0.007593 
0:2278 0.010971 0.015087 0.002330 0.002598 0.005116 -0.010091 -0.015644 0.017828 -0.012121 -0.019616 0.003275 -0.013159 0.000996 -0.009563 0.013679 0.007570 -0.019956 0.018475 0.016685 0.004881 -0.007102 -0.006292 -0.009919 0.009963 -0.004705 
1:4009 0.017722 0.016370 0.013445 -0.002151 -0.018016 -0.000100 -0.010713 -0.014572 -0.005544 -0.008076 -0.003880 0.010276 0.008168 0.004916 0.015336 0.005350 0.019534 -0.013230 0.013921 -0.011000 -0.011918 0.011729 0.014569 -0.012568 -0.016948 
2:8107 0.016651 0.015928 0.003441 0.000145 0.012134 -0.017460 0.008276 -0.003921 -0.016986 0.001933 0.019224 -0.016594 0.000248 -0.005030 0.019859 -0.002324 0.006972 0.013251 -0.018190 -0.000347 0.010886 0.016605 0.004893 -0.003764 0.005847 
2:10802 0.014477 0.016054 -0.001667 -0.007558 0.006226 0.002521 0.002427 -0.013174 0.003956 0.014377 -0.010937 0.017682 0.011587 0.002833 0.002823 0.017291 -0.018923 -0.011246 0.005724 -0.003584 0.017756 0.011978 0.013506 -0.016200 -0.004673 
0:758 -0.011858 -0.009013 0.001209 -0.017288 -0.011530 0.004632 -0.018475 -0.017785 0.019707 0.003955 -0.016192 -0.006869 -0.006860 -0.015114 -0.013888 -0.016532 -0.015276 -0.008083 -0.003663 -0.012133 0.003468 0.000497 -0.001529 0.012294 -0.012070 
1:2977 0.011746 -0.013209 -0.002795 -0.019956 -0.007233 -0.010034 0.016262 0.004928 -0.009214 0.010294 0.013359 -0.013384 -0.015789 -0.007553 0.004026 -0.018734 -0.001224 -0.006545 0.011520 -0.005191 -0.001256 0.015679 0.005944 0.008589 -0.002757 
2:8571 0.001922 -0.000703 0.003920 -0.015964 -0.017372 0.002173 -0.001934 -0.009359 0.010758 0.016832 0.016922 0.017990 0.014184 -0.018209 -0.008071 -0.010051 0.018156 -0.016561 0.019938 0.014383 0.016902 -0.014488 -0.007448 0.011255 -0.001564 
3:12789 -0.008108 0.010455 0.013680 0.001729 0.006337 -0.006500 0.019906 -0.017738 0.005719 -0.018612 -0.017809 0.013606 0.001611 -0.016235 0.017029 -0.012016 0.011427 0.005037 -0.005851 0.006238 0.009032 0.017933 -0.014857 -0.007639 -0.019408 
0:448 0.016197 -0.012065 0.012899 0.007866 -0.011440 -0.017414 0.004547 -0.019400 0.007334 -0.019281 -0.005285 0.012828 -0.014089 0.015086 0.016388 0.014948 -0.019909 0.009587 0.016660 0.010141 -0.015036 0.007253 0.013990 -0.012354 0.015541 
1:5544 0.016386 0.000655 -0.001881 0.004088 0.005823 0.011885 0.010129 0.011411 0.017606 -0.012238 -0.013449 0.006806 0.009201 0.004876 -0.018201 0.019926 0.015336 -0.016516 -0.004813 0.000319 0.001819 -0.009845 -0.007898 -0.007792 -0.002941 
0:2641 0.014959 -0.015551 0.002382 -0.013299 0.003420 -0.002494 -0.004264 0.004031 0.000163 0.019242 -0.015411 0.017972 -0.013588 -0.015828 0.019143 0.012224 -0.004816 -0.003005 -0.011656 0.016227 -0.011290 -0.017345 0.011987 -0.000039 0.010319 
1:6936 -0.000074 -0.014255 -0.013613 -0.018182 0.008298 0.011716 0.005080 -0.004183 -0.002170 -0.009870 -0.014091 -0.016319 0.009724 0.000179 0.009169 -0.015981 0.005920 0.013206 0.004851 0.004902 -0.007773 0.017546 0.010413 -0.018824 0.008012 
1:5930 0.003048 -0.010002 0.005611 0.012742 0.012290 -0.010577 0.019846 -0.009808 -0.006126 -0.009990 0.015527 -0.015348 -0.016864 -0.015096 -0.016448 -0.014520 0.001861 -0.018898 0.013408 -0.008794 -0.016088 0.017072 -0.016503 -0.010199 -0.012900 
2:9844 -0.013490 -0.003423 0.001951 -0.008975 -0.002799 0.003970 -0.010871 0.017547 0.011197 -0.007641 0.014996 0.005454 -0.010701 -0.004032 -0.016228 0.003753 -0.007732 -0.007685 -0.019785 0.006333 0.018509 0.003062 -0.002723 0.009878 -0.014690 
0:30 -0.009044 0.014276 -0.000843 0.000843 -0.007969 0.019218 0.016660 0.019115 -0.008471 0.008909 0.016825 -0.009833 0.006076 0.002623 0.012109 -0.018389 0.013264 -0.007223 0.008395 0.010545 -0.017460 0.009664 0.000114 0.019217 0.009396 
1:4126 0.014583 0.010144 0.011912 -0.003417 0.016906 0.003180 0.006373 0.012247 -0.010354 -0.010695 -0.008376 -0.004729 0.005122 -0.016077 0.015152 0.006513 0.000225 0.015783 -0.011018 0.017549 0.002326 -0.002055 0.011589 -0.015764 0.014027 
2:11997 -0.000304 -0.006521 -0.007967 0.013970 0.015669 -0.018213 0.016732 -0.011658 0.013827 0.004868 0.007525 0.006877 0.014062 -0.010379 0.009604 -0.015519 -0.015339 0.003374 -0.008994 -0.004221 0.003379 0.018442 0.003047 -0.017410 -0.009327 
0:2535 -0.001454 0.014816 0.002281 0.016898 0.019924 0.003315 0.015046 -0.001427 0.006013 -0.008841 0.014623 0.011077 -0.000354 -0.000565 0.005971 0.003270 0.009197 -0.016338 0.002147 -0.001069 0.006786 0.012185 0.016387 -0.010673 0.001655 
2:10529 0.013958 0.003054 -0.002907 0.012392 -0.000002 -0.004705 -0.007861 -0.014583 0.015536 -0.011302 0.013705 0.007735 -0.004814 -0.003576 -0.018292 0.000486 -0.015024 -0.009297 -0.017830 0.000212 0.016806 -0.006269 -0.000514 -0.015399 0.007404 
1:2798 -0.000161 -0.016964 -0.007926 -0.019363 0.000572 -0.011968 -0.000832 0.014329 0.005682 -0.017977 -0.019636 -0.008317 0.002483 -0.000304 0.004930 -0.017893 0.002202 -0.017486 -0.001664 -0.003367 -0.000093 0.004161 0.015401 -0.006977 0.012828 
0:1631 -0.008358 -0.006540 0.005709 -0.013541 -0.000251 -0.003681 0.006683 0.008485 -0.002995 -0.013203 0.012926 0.015829 0.018566 0.015733 -0.019000 0.005372 0.015904 0.017463 0.009693 0.006838 0.018652 -0.007927 -0.015652 -0.006635 -0.016665 
1:4468 -0.012783 -0.014970 0.016499 0.008155 0.014625 -0.007694 0.019212 0.000181 -0.015488 -0.009281 -0.018986 0.005449 -0.013891 -0.019320 -0.014146 -0.016108 -0.018606 0.015297 0.005250 -0.003100 -0.004975 0.011040 0.014931 -0.018750 0.008268 
2:7362 0.007367 0.007313 0.004814 0.005862 0.016116 -0.015915 0.011820 -0.005054 -0.004625 0.018639 0.018120 -0.018280 0.004087 0.011854 0.000824 0.011235 -0.013061 -0.014743 -0.018248 -0.004982 -0.012921 -0.019380 0.017432 0.001956 -0.003524 
0:845 0.009102 -0.005277 0.003369 0.018702 -0.012818 -0.009909 -0.001698 -0.013910 0.012689 0.014040 0.004274 0.019633 0.009629 -0.013785 0.005891 0.004136 -0.017471 0.006572 -0.015092 -0.003749 -0.013250 -0.001544 -0.011512 0.012891 -0.010623 
1:3805 -0.014438 0.012975 0.019273 0.002920 0.013792 -0.007355 0.018852 -0.009170 -0.012393 0.018821 -0.011947 -0.004989 0.019698 -0.013503 0.012257 -0.010810 -0.014442 -0.012522 -0.011645 0.003748 -0.006599 0.014526 -0.015448 0.014854 -0.000784 
1:6659 0.004124 0.011301 -0.015401 0.016917 0.018422 0.004405 -0.004503 -0.000398 0.009021 -0.002437 0.010576 0.012166 0.004122 0.000702 0.015155 0.009467 0.004792 0.007299 0.007035 -0.017631 0.011985 -0.015893 -0.000876 -0.009012 0.011545 
2:9723 -0.000303 0.006853 0.003827 0.006706 0.007439 -0.010843 0.018586 -0.004118 -0.004121 -0.018872 0.015626 0.002251 0.013624 0.017458 0.019553 -0.017385 0.000459 -0.016232 -0.004983 -0.002224 0.013045 -0.007921 0.018160 0.008541 -0.010697 
3:13083 0.013525 -0.010445 -0.002917 0.010273 0.008613 -0.008909 0.016957 0.011513 -0.003173 0.008769 -0.011212 -0.002539 -0.011696 -0.004272 -0.016687 -0.016250 0.000110 0.004201 -0.002880 -0.011916 0.018133 -0.013881 0.019885 -0.005518 0.007660 
0:1361 0.008970 -0.006653 -0.013627 -0.016039 -0.012453 0.014296 -0.000339 0.014553 0.013886 0.009300 0.005525 -0.016738 -0.002466 -0.004859 0.007541 0.009321 -0.009675 0.003806 0.003264 0.005796 0.019829 0.003612 0.007027 -0.002928 -0.003536 
1:6521 -0.012872 -0.003688 0.014551 0.005264 -0.013566 0.012599 0.007148 0.018779 -0.008924 0.016109 -0.008546 -0.011606 0.004638 0.013008 -0.017991 -0.011478 -0.012189 0.015125 -0.009597 -0.010968 -0.013582 0.005979 -0.011744 -0.009289 0.002270 
2:9856 -0.011121 0.015023 -0.004221 0.013010 -0.013089 -0.014295 -0.014365 -0.000564 -0.017193 0.006081 0.003292 0.016936 0.010848 -0.009874 -0.007526 -0.005915 0.014003 0.016811 -0.011930 -0.016298 0.010210 0.011879 -0.002680 -0.001241 -0.004747 
2:8405 -0.000059 -0.011566 0.008703 0.006559 0.012663 -0.015795 0.004017 0.012381 -0.018236 0.009684 -0.011199 -0.009896 0.018530 0.005578 0.001220 -0.003109 -0.009630 0.002281 -0.000051 -0.009324 -0.007272 0.017321 0.017108 -0.012966 0.011759 
2:11472 -0.015150 -0.007318 0.007996 -0.016887 -0.011582 -0.007501 0.016435 -0.015793 0.005532 -0.011967 0.007574 0.018670 -0.007194 -0.002076 0.017345 0.013871 -0.012656 -0.018105 -0.015676 -0.001969 -0.005499 -0.002292 -0.017175 -0.001858 0.005321 
1:3767 -0.014470 0.010951 0.019219 -0.006844 0.019045 -0.011756 0.013911 0.015515 -0.014179 -0.011986 0.002516 -0.019658 -0.008904 0.005097 -0.007667 0.011762 0.000975 0.010062 -0.010120 0.003355 0.001096 0.008484 -0.017787 0.014995 -0.018900 
2:8452 -0.005582 -0.015512 -0.012964 0.019001 -0.001111 0.006727 -0.013556 0.019207 0.005720 0.004061 -0.002136 -0.012214 0.010117 -0.011589 -0.015957 -0.005818 -0.008554 0.011035 -0.014327 0.007093 -0.009517 0.009299 0.010614 -0.009165 -0.012914 
3:12618 -0.007008 0.003669 -0.010795 -0.014175 -0.003112 0.017130 0.017960 -0.013578 0.005240 0.011987 0.011382 -0.008199 0.005946 0.002810 -0.016543 0.017340 -0.007931 -0.006188 0.000661 0.005899 0.017969 0.018205 0.001296 -0.009563 0.013251 
3:12888 0.017276 0.017742 -0.003576 -0.006800 -0.008188 -0.001789 0.010174 0.000443 -0.003392 0.018308 -0.004125 -0.013042 -0.004693 0.017544 0.016359 0.013027 0.019751 -0.016483 -0.018600 0.018164 0.019840 0.004163 0.008157 0.003584 -0.001657 
2:9608 0.016339 0.003785 0.010956 -0.016964 0.001517 -0.011100 0.004510 -0.010152 -0.003522 0.000893 -0.005214 -0.014224 0.004302 -0.009798 -0.004028 0.004131 -0.010398 0.014474 -0.014389 0.001476 -0.012615 0.014811 -0.016834 -0.017911 0.005522 
0:870 0.004884 -0.005876 -0.017116 0.007554 -0.016775 -0.009370 0.017866 -0.011316 -0.009042 0.013375 0.013573 -0.014593 -0.012443 0.006575 -0.019514 -0.014677 -0.016504 0.018848 0.014809 -0.007864 0.007000 0.016139 0.006439 0.002798 0.013844 
2:8416 0.013473 -0.014323 -0.010677 -0.018934 0.000372 0.000797 -0.005279 0.001043 -0.016058 0.019027 0.010590 0.019786 0.001218 0.012630 0.012746 0.007975 0.019842 0.013104 0.018061 0.008304 -0.015196 -0.008584 0.002147 0.011230 -0.006116 
0:306 0.012725 -0.015560 -0.010925 0.007125 -0.012660 -0.019216 -0.005361 -0.018741 -0.005916 0.008656 0.001337 0.012582 -0.006498 0.015078 -0.002229 0.004056 -0.015062 0.017957 0.000798 -0.018206 0.009204 -0.015034 -0.004733 -0.005703 -0.017418 
2:7695 -0.000157 -0.001427 0.005266 0.014255 0.006645 0.008137 -0.006399 0.012714 0.011121 0.012617 0.018161 -0.016621 -0.006031 0.010746 0.019629 0.017548 -0.001320 -0.004156 -0.016846 -0.011637 0.015711 0.018793 -0.001575 -0.017241 0.004163 
0:298 -0.006601 -0.008578 -0.004290 -0.017117 -0.011329 -0.007487 0.019801 0.016860 0.001772 -0.010843 0.016500 -0.016533 -0.009058 -0.007192 0.001915 0.011994 0.005762 0.006309 0.002912 -0.006794 -0.002969 -0.011037 -0.007440 0.012406 -0.018105 
2:11491 -0.004227 -0.005562 0.014686 -0.000133 0.019630 -0.009793 -0.005515 -0.008549 0.007958 0.018665 -0.003136 0.017234 -0.003362 0.019983 0.001323 0.009536 0.006799 0.019059 -0.005794 -0.007000 0.013116 -0.017963 -0.001236 0.004098 -0.010319 
2:9136 0.006353 0.015150 -0.012783 -0.014719 -0.016154 -0.007894 0.002730 0.010262 0.002318 -0.015025 0.013157 0.008833 0.003268 -0.013286 -0.016599 0.001300 0.010948 0.008159 -0.016632 0.014696 0.014220 0.001856 0.015703 0.012637 0.009473 
0:2484 0.004355 -0.014302 0.014866 0.003726 0.000702 -0.008269 0.016461 0.015975 0.013301 0.018066 0.013325 -0.006366 0.017017 0.015432 -0.005976 0.013605 -0.000974 0.019087 -0.008692 -0.016249 -0.000429 0.018626 0.012673 0.011624 0.011291 
1:4896 -0.009644 -0.015418 0.006598 0.016450 0.016535 0.013388 -0.019142 -0.016302 0.017604 -0.012030 0.008488 -0.007495 -0.018240 -0.016095 -0.003525 -0.003951 -0.012976 0.014842 0.003188 -0.009450 -0.004558 -0.000018 -0.009647 0.008334 -0.016292 
2:12344 -0.013951 -0.011371 -0.000750 0.019251 0.019515 -0.006106 -0.000538 0.018604 -0.003855 0.009844 0.000683 -0.004290 -0.002670 -0.003665 0.013005 0.005781 0.015608 -0.008467 -0.005625 -0.009525 -0.002401 0.000297 -0.001251 0.015227 -0.019854 
2:11756 -0.017098 -0.019486 -0.002852 0.000624 0.000626 0.015047 0.011506 -0.005452 -0.000686 -0.010774 0.007948 -0.015289 -0.003337 -0.005133 0.019994 -0.003125 -0.011777 -0.017252 0.013455 0.002682 -0.013643 0.010811 0.009060 -0.019050 -0.007054 
0:551 -0.015686 0.007636 -0.016309 0.008842 -0.003467 -0.011317 -0.007004 -0.010885 0.013140 -0.003332 0.002192 -0.019760 -0.003054 0.000329 -0.001816 0.016535 -0.007999 -0.014455 0.005358 0.010762 -0.007752 0.013713 0.009839 0.012934 0.011112 
0:859 0.005888 -0.008335 0.011324 0.019888 0.000087 0.001925 0.018630 0.012933 -0.018173 0.011867 0.001047 0.007393 0.019814 0.016031 -0.002065 0.007888 -0.002189 -0.005953 0.012711 0.007108 0.017505 -0.015542 -0.005850 -0.011750 0.012974 
0:599 -0.005456 -0.006027 -0.017144 0.007083 -0.019625 -0.008634 -0.001810 -0.016967 0.016320 -0.003978 0.000874 -0.019459 -0.004771 -0.009400 -0.019005 -0.017753 -0.015873 -0.019789 0.003148 -0.010480 -0.014991 -0.017116 0.013408 -0.005685 -0.003720 
1:2805 -0.008469 0.012666 -0.019809 -0.003003 -0.008842 0.000989 -0.007791 0.009296 0.017652 0.007387 0.003206 0.005688 0.003055 0.001010 0.004037 -0.019573 -0.006605 -0.019157 -0.009392 -0.012338 0.007273 0.004753 0.004770 0.014185 -0.000620 
0:2644 -0.006745 0.018978 -0.003862 0.005750 -0.003798 0.006010 0.010450 -0.012121 -0.002798 0.010506 -0.000833 0.009112 0.003901 0.007885 0.018759 -0.000877 0.004750 -0.000697 0.014463 -0.017874 -0.015415 -0.014922 -0.008418 0.010206 -0.010550 
1:3947 -0.016354 0.008696 0.006225 0.005784 -0.012443 0.001458 0.016491 -0.010877 0.009009 -0.009937 -0.014852 -0.019827 -0.015142 -0.003185 0.006886 0.006383 -0.013344 0.006783 0.008056 0.005771 -0.008241 0.001340 -0.018104 -0.012794 0.005657 
1:3033 -0.002907 0.005641 0.019463 0.019917 -0.015050 0.013634 -0.008939 -0.019874 -0.014742 0.006208 0.011259 -0.019301 0.002753 0.007506 -0.003706 -0.010383 -0.001047 -0.011679 -0.001037 0.011410 -0.019326 -0.000720 0.009322 0.009038 0.018595 
2:9374 0.017380 0.010279 0.000738 0.002667 -0.005375 -0.009584 -0.014053 0.007481 -0.013777 -0.011931 -0.010257 0.001278 -0.011977 -0.011413 0.013915 -0.011410 -0.010458 -0.013397 0.001498 -0.015505 0.016570 -0.010814 0.010706 -0.018807 -0.019005 
0:2524 0.003343 -0.004451 -0.009948 -0.007510 0.014996 0.010614 0.015077 0.005005 -0.015112 -0.008810 -0.019225 0.002424 0.018482 -0.005727 0.006439 0.008998 0.007115 0.010551 -0.016928 -0.016454 -0.015195 0.013418 -0.019944 0.015747 0.014960 
0:2516 -0.009382 0.015197 -0.003454 0.010190 0.013563 -0.015274 -0.011982 0.011639 0.002085 -0.005023 -0.019953 -0.001840 0.011057 -0.016765 -0.000393 -0.006632 0.019063 0.012522 0.016083 0.019494 0.018807 0.005399 0.009207 -0.016480 0.006255 
0:187 0.006350 -0.016374 0.007111 0.006628 0.002172 -0.015288 0.005607 0.002034 -0.019891 0.017370 0.015268 0.004541 0.005556 0.003728 0.001455 0.017911 -0.000133 0.010408 -0.015238 0.010291 0.016400 0.012798 -0.002267 -0.001735 -0.002540 
0:1507 0.010471 0.011862 -0.015397 0.017754 -0.018571 0.003213 0.002225 0.003784 -0.004036 -0.012701 -0.007771 0.010819 0.003120 -0.012719 0.008448 0.017520 0.014925 0.005676 -0.006525 -0.007422 -0.008777 -0.000603 -0.011687 -0.013542 -0.002770 
2:8936 -0.000503 0.010220 0.012325 0.003201 -0.019527 -0.009570 -0.006347 -0.008925 0.004893 -0.018942 0.003339 -0.004904 0.001905 -0.006639 0.012082 0.007453 0.013066 0.009333 -0.015846 -0.016804 0.009017 -0.002722 -0.013473 0.002279 -0.018492 
0:936 -0.013709 -0.007940 -0.004186 -0.006813 -0.005165 -0.011082 -0.010376 -0.005585 -0.018127 0.007054 -0.015931 0.014644 0.004086 -0.010694 -0.017325 -0.005198 0.010236 -0.007311 0.004711 -0.019033 -0.010873 0.010118 -0.005159 0.005299 -0.010781 
0:637 0.015321 -0.015456 0.012598 -0.019133 -0.010153 0.015712 -0.001340 0.007990 -0.018504 -0.004669 0.019803 0.009489 0.015926 0.005205 0.005793 0.011391 -0.017730 0.007571 -0.002201 0.010610 0.005724 0.017105 -0.008863 0.004600 -0.017448 
1:3222 0.005027 0.001171 0.011544 0.016356 0.019518 -0.001325 -0.012436 -0.013409 0.010714 -0.010928 -0.014145 -0.004562 0.013001 0.018458 -0.015585 -0.000786 -0.005959 -0.000605 -0.005966 0.006550 -0.009887 -0.014238 -0.011260 -0.002726 -0.017392 
0:269 0.000709 -0.003452 0.002851 -0.007812 0.013724 0.015645 -0.003932 -0.006377 0.007593 -0.008885 0.001933 -0.017569 -0.005797 -0.002283 -0.013282 0.008984 -0.018317 -0.016276 0.010384 0.008060 -0.000389 -0.000583 -0.014546 0.016134 -0.003695 
2:7734 -0.011686 0.008213 -0.018197 -0.013308 0.006735 0.012842 -0.003381 0.014412 0.006736 -0.012681 0.011184 -0.018710 0.001872 -0.011985 0.009251 0.008731 -0.005662 -0.018617 0.018460 -0.003492 0.003693 0.015311 0.012433 0.015037 0.015803 
0:2251 0.002302 -0.001086 -0.012031 -0.010444 -0.008669 0.016886 0.017737 0.007034 -0.012678 -0.012620 0.001730 0.002396 -0.011691 0.016001 -0.019227 -0.007758 -0.006208 0.002912 -0.004566 0.004714 -0.010047 0.009925 0.016896 -0.019142 0.000951 
0:1468 -0.002952 -0.019667 -0.006193 -0.004776 -0.004760 -0.015456 -0.019422 0.003471 -0.015929 0.012008 0.016719 -0.011794 0.018505 0.007919 0.002691 -0.006885 -0.008715 0.018197 0.015995 -0.010464 0.006996 -0.005772 -0.011380 0.018224 -0.018172 
1:6729 0.013198 -0.017663 -0.015313 0.014246 0.009960 -0.016528 -0.005515 -0.016905 0.017695 -0.019306 0.004757 -0.013303 0.009429 0.014589 0.009737 0.014054 -0.002166 -0.019769 0.013269 0.008645 -0.009307 0.011449 -0.001128 -0.002165 0.009647 
1:5139 -0.004224 0.004591 -0.002708 -0.009379 0.011703 -0.002317 -0.007542 -0.011923 -0.008737 -0.013592 -0.007679 0.002182 0.009527 0.008631 0.013520 -0.019783 -0.006366 -0.003984 -0.006505 -0.006981 -0.005243 -0.018659 -0.000957 0.012088 0.014835 
2:9491 -0.010227 -0.015227 0.002882 -0.017651 0.002580 -0.014671 -0.004783 0.004730 -0.001845 0.000664 -0.001944 -0.019212 -0.007993 0.002997 -0.019538 0.017171 -0.003778 0.016154 -0.003207 -0.008670 -0.003800 -0.000807 0.003887 -0.007479 -0.015591 
2:12033 -0.006959 0.000910 0.009953 0.008501 -0.003395 0.011609 0.008087 0.015810 0.008816 0.013311 0.002918 -0.009924 -0.016603 0.005336 0.009365 0.011602 0.016514 -0.003925 0.016423 0.017008 -0.013596 0.010242 0.017298 0.000594 -0.006190 
2:8207 0.009174 0.016013 0.013001 -0.006495 -0.019626 0.010195 -0.007741 -0.015062 0.013035 -0.004435 -0.011180 0.005649 -0.019532 -0.018561 -0.004565 0.012211 0.019396 -0.017675 0.016407 0.006225 0.011788 -0.009696 0.011603 0.004494 0.016730 
0:1737 0.005546 -0.000789 -0.002432 0.002215 0.002210 -0.004464 0.009702 0.016181 -0.013887 -0.000671 0.014920 0.018022 0.008646 0.002980 0.001785 0.006707 -0.016978 0.015214 0.010999 0.004330 -0.010684 0.001230 -0.017348 0.016618 -0.005910 
2:9291 0.019394 -0.003940 0.017170 0.013782 0.000451 -0.016285 -0.009183 0.006072 -0.008866 0.018286 -0.003924 0.018909 0.006666 0.012050 0.012766 -0.007098 0.007461 -0.015766 0.019791 0.011704 -0.019377 -0.007902 0.013000 -0.006769 -0.016717 
2:10736 -0.006470 -0.018290 0.007867 0.017230 0.001076 -0.018073 -0.011280 -0.019087 0.006336 -0.006369 -0.017855 0.019283 0.017486 0.016871 0.009459 0.005817 -0.001578 -0.018588 -0.012285 0.009976 -0.008641 -0.011069 0.004276 -0.003882 0.008021 
3:12577 0.015902 0.003794 -0.015835 -0.001335 -0.001255 -0.011076 0.010559 0.019880 -0.016284 0.007300 0.003408 -0.009473 0.010406 0.006885 0.018260 -0.017244 -0.009954 0.010056 -0.005813 0.014880 0.004758 -0.018787 -0.006995 0.004952 -0.002202 
0:1191 -0.014557 0.004690 -0.003580 0.013033 -0.000035 -0.002391 0.010278 0.004676 0.007279 0.008130 0.016758 -0.005381 -0.016004 -0.011615 0.005771 0.018684 0.003070 -0.004233 -0.005834 -0.017821 -0.001778 0.012396 -0.008250 -0.011543 -0.016571 
0:1215 -0.003568 -0.017776 -0.014985 -0.002146 -0.018298 0.016973 -0.019774 -0.004539 -0.014350 0.002857 0.010093 -0.016006 -0.005851 -0.008262 0.009453 -0.017308 0.006645 -0.015840 -0.018830 -0.007342 -0.002284 0.019742 -0.006664 -0.002932 -0.019033 
1:6909 -0.019784 -0.008570 -0.012143 -0.012492 0.015278 -0.002394 -0.016444 -0.011005 0.016856 -0.016033 -0.014400 -0.009233 -0.012648 -0.012786 -0.003556 0.019291 0.002047 0.015601 0.019545 0.005642 0.017006 0.014926 -0.017156 -0.002114 -0.011090 
0:2014 0.011331 0.016355 -0.012256 0.012921 -0.019948 0.019534 0.008909 -0.002391 0.009106 -0.000004 -0.002195 -0.017988 -0.016190 -0.015584 -0.016294 0.006572 -0.019120 0.009813 -0.013123 0.009287 -0.004272 0.016854 0.005900 -0.003293 0.016403 
1:4211 0.010975 -0.003803 -0.012128 -0.015063 -0.017924 -0.011661 -0.001584 -0.001506 -0.018030 0.018879 -0.009033 -0.015465 0.009378 0.002337 0.010448 -0.015062 0.010772 -0.015629 0.004318 0.002178 0.002725 -0.017374 -0.013256 0.011383 -0.002753 
2:10324 -0.008253 -0.015904 -0.011953 0.004505 -0.013564 0.018595 -0.004235 0.018291 0.014508 0.011354 0.008807 0.016455 0.010407 0.008224 -0.019519 0.019718 0.015442 0.016444 -0.009847 0.013304 0.004279 -0.000320 0.007614 -0.007929 0.008290 
3:12895 -0.015413 0.015333 0.003883 -0.001329 -0.003746 0.005545 -0.000642 0.005487 -0.013692 -0.009498 0.016972 0.011124 0.007710 0.012302 -0.017535 -0.014306 0.005630 -0.010884 -0.018661 0.011413 0.000312 -0.018068 0.017482 -0.013087 -0.014147 
0:309 0.014621 -0.015107 0.014097 0.010721 -0.010367 0.009797 -0.005093 0.007617 0.010980 -0.011058 -0.003885 -0.015292 0.014236 0.019152 -0.002666 0.011322 0.017428 0.011154 -0.007627 -0.012051 0.014484 0.003965 -0.011360 0.018589 -0.017096 
1:4682 0.008840 0.009737 -0.012490 0.004422 -0.008615 0.012229 0.006825 0.018416 0.019767 -0.002438 0.000066 0.017154 -0.006840 -0.004270 -0.003225 -0.010664 -0.005606 -0.015235 0.009115 0.004714 0.004953 0.018959 -0.003064 -0.018891 0.006885 
1:2848 -0.018034 0.005612 -0.015380 -0.018662 0.010879 0.015960 0.005305 -0.007031 -0.007469 -0.001428 -0.013285 -0.007598 0.015733 -0.019111 0.016380 -0.005716 0.015172 -0.004281 0.002838 0.015908 -0.003117 -0.008882 0.008188 -0.011894 -0.013152 
2:8617 -0.002036 0.000443 -0.015851 -0.016788 -0.015372 0.000411 -0.010016 -0.007379 0.015868 0.000132 -0.003110 0.007132 0.012718 -0.006575 -0.016227 0.000320 0.004542 0.001705 -0.004554 -0.008505 0.019289 -0.002617 -0.011303 0.014336 0.017865 
0:2360 0.019459 0.004934 0.004057 -0.005388 -0.015052 0.016955 0.014843 0.010055 0.001852 0.012539 0.000114 -0.004685 -0.015783 -0.001035 0.016383 0.002703 -0.006543 0.017287 0.005198 0.004207 0.003760 0.004358 -0.013857 -0.015371 -0.006860 
2:10154 0.008316 0.009238 0.011731 0.007966 -0.006949 -0.019327 -0.009088 0.015003 -0.007360 -0.004059 -0.018016 0.016943 0.001289 0.004617 -0.002165 -0.007805 -0.004962 -0.013872 0.007600 0.006199 -0.006718 -0.016085 -0.014079 0.006371 0.004308 
2:7733 -0.011565 -0.007696 -0.011248 -0.019034 -0.013943 -0.016376 0.012209 0.016405 -0.008168 0.007431 0.009119 -0.002049 -0.004162 0.000706 0.012221 -0.002160 -0.000532 -0.012618 0.008921 0.004073 -0.009488 0.016781 -0.002991 -0.019206 -0.004905 
1:5699 -0.001044 -0.004846 -0.003618 0.017813 -0.014579 -0.012615 -0.011504 -0.018869 -0.013255 0.013597 -0.016547 0.010411 0.006122 0.012326 0.008464 -0.009844 -0.013477 0.006621 0.009352 0.007403 -0.007222 -0.018364 -0.007330 0.006908 -0.005352 
0:2346 0.014607 -0.018702 -0.012454 -0.018847 0.007886 -0.010410 0.000536 -0.010582 -0.005487 -0.017005 -0.013947 0.011587 -0.014624 0.013923 0.000511 0.006997 -0.014725 -0.001184 -0.007689 0.007166 0.002410 0.014034 0.000761 -0.008329 0.013526 
1:3375 -0.016243 -0.003152 -0.018649 -0.018166 -0.004096 0.019335 -0.009132 0.004395 -0.006672 -0.017238 0.008922 -0.012560 -0.008236 -0.014089 -0.001986 -0.010769 0.001738 0.014953 -0.013280 -0.005317 0.016236 0.013886 0.008147 0.005395 -0.002354 
1:6031 -0.016018 0.016325 -0.012074 0.014169 -0.015060 0.006060 -0.003941 -0.012279 0.017459 -0.017331 -0.010692 -0.014151 -0.000876 0.010784 0.012879 0.009370 0.000565 -0.013984 -0.016614 -0.006047 0.002891 -0.012601 0.001410 -0.015818 -0.002744 
1:4475 -0.004684 -0.002154 0.010396 -0.006659 0.001609 -0.014765 0.016604 0.003041 -0.017894 -0.005890 0.007986 0.014018 -0.000421 -0.008361 0.007229 -0.004018 -0.013043 0.002540 -0.017305 -0.004773 -0.017980 -0.006549 0.006215 -0.012195 -0.010168 
0:2336 -0.007929 -0.014939 -0.016846 -0.011474 -0.017361 0.012177 0.007488 -0.001193 -0.019935 -0.009919 0.000106 -0.011270 0.013636 -0.006075 -0.012735 0.017961 0.016076 0.016336 -0.014820 0.011191 -0.000071 0.009197 0.000580 0.000431 -0.006551 
0:1073 0.006285 -0.004762 -0.004105 -0.016275 -0.003730 0.002946 -0.006203 0.014755 -0.015220 -0.009951 0.011038 0.008245 0.007432 0.006785 0.013652 -0.018388 0.014357 0.008928 -0.001180 0.018668 0.012843 0.017324 -0.001694 -0.014960 0.018207 
1:5119 0.012364 -0.001821 -0.015797 0.008565 0.016850 -0.010221 0.017182 -0.013488 -0.013824 -0.013881 0.004706 -0.017776 -0.001916 0.019558 -0.010080 0.009097 -0.001758 0.000737 0.018690 0.004762 0.009016 0.007678 0.014835 -0.013971 -0.008341 
1:5424 -0.014732 -0.012602 -0.012159 -0.017228 0.012599 0.015649 -0.018027 0.001903 0.017759 -0.009225 -0.015137 -0.004573 0.003064 -0.011485 0.017002 0.012016 -0.006090 0.016567 0.018449 -0.000164 0.010622 0.000646 0.019452 0.018266 -0.016904 
1:4383 -0.017940 0.019829 0.013186 -0.005654 -0.012027 -0.019371 0.006255 -0.017168 -0.003957 -0.003543 -0.016641 -0.009574 -0.003041 -0.004584 0.007172 -0.018171 -0.012009 -0.015056 0.012314 -0.008314 -0.012400 0.018665 0.017349 0.017128 0.013041 
3:12870 -0.017863 0.002952 0.007085 0.010913 -0.000570 -0.004892 -0.007602 0.011242 0.004331 0.006783 -0.017238 -0.016988 0.010091 0.002555 -0.009618 0.006268 0.014464 -0.003108 -0.004517 0.016093 -0.014784 -0.013129 -0.001277 -0.001450 -0.003931 
3:12650 -0.001691 0.008309 0.017794 0.011273 -0.010797 0.007258 0.010060 -0.002287 0.006575 -0.015914 0.007781 0.005503 0.006462 0.013850 0.006367 0.003617 -0.009576 -0.007358 0.014872 -0.003156 0.017026 -0.009112 0.016750 -0.001140 -0.003094 
2:7270 0.011235 0.015842 0.006187 0.007851 -0.011653 0.010824 0.018514 -0.012230 -0.010922 0.012021 -0.007821 0.016075 -0.002573 -0.003144 -0.017393 0.014041 -0.012614 -0.012731 0.008722 0.017911 0.019388 -0.011030 0.008952 0.001622 0.009771 
2:10107 0.007683 -0.017837 -0.015347 -0.006871 -0.018360 0.010644 -0.017900 0.007423 0.010444 -0.013888 0.017682 -0.018966 -0.001263 -0.014465 0.012167 -0.007025 0.017486 -0.007895 -0.013518 0.000423 -0.005468 0.008102 0.001374 -0.004832 0.010159 
3:12713 -0.002298 -0.015631 0.014964 0.005055 0.009654 0.010973 -0.019124 -0.016216 0.017709 -0.017628 -0.016144 0.004412 -0.006873 0.005901 -0.000867 0.016520 0.017885 -0.003124 0.014663 -0.011452 0.017649 0.002987 0.009750 0.012090 0.000189 
1:5503 -0.015236 0.017552 -0.005945 0.005081 0.009422 0.012751 -0.012766 -0.011317 0.015414 -0.014347 -0.005676 0.015358 -0.005087 -0.006273 0.012065 -0.000143 0.005808 -0.011320 0.016437 0.007887 -0.009253 -0.002100 -0.006772 0.017740 -0.002208 
1:4162 0.003585 0.005957 -0.011182 0.011794 0.000385 0.019568 0.012659 0.007303 0.014160 0.013412 0.001090 -0.008439 -0.010857 0.012419 0.010427 -0.004269 -0.012468 -0.017839 0.000669 -0.004697 0.019289 0.009315 0.014379 -0.019880 -0.012043 
2:12205 0.003145 0.009059 -0.008616 -0.001912 -0.010381 -0.011418 0.011155 0.008460 0.004989 0.010502 -0.019385 0.019031 -0.002877 0.014286 -0.015096 0.015203 0.000955 0.012642 -0.011171 -0.009273 -0.004129 -0.004618 -0.018500 -0.019452 0.003619 
0:1090 0.001196 0.019776 -0.000930 -0.017064 0.011124 0.009724 -0.012540 0.004144 -0.018935 0.008509 -0.015583 0.019352 0.009062 0.005465 0.001518 0.002549 -0.007547 -0.007160 0.017606 -0.019455 0.008462 -0.002358 0.006564 -0.005191 -0.001242 
1:5459 0.003802 0.017386 -0.003325 0.019302 -0.004337 -0.002826 0.016215 0.016298 0.011016 0.017379 0.006691 0.002328 -0.003505 0.019634 -0.013129 -0.004978 0.009578 0.017762 0.000214 -0.019055 0.016295 0.004241 0.017222 -0.001994 -0.003133 
1:6199 -0.005523 0.005413 -0.000872 -0.008992 -0.010329 -0.011884 0.000063 -0.013931 -0.005905 -0.009502 -0.001580 -0.018958 0.000933 0.018702 -0.011390 0.001775 0.001836 0.002455 -0.004295 -0.019985 0.011599 -0.007764 0.007399 -0.002745 0.000022 
1:4780 -0.007829 -0.004027 0.006941 -0.012127 0.013200 0.018063 0.005876 -0.017363 -0.016965 0.007388 -0.004616 -0.016113 -0.001560 -0.012198 -0.008034 0.007487 -0.016775 -0.002789 0.001924 0.002722 -0.008813 0.000268 0.013309 -0.013808 0.016005 
